 DATE: 2022-05-17 UNITS: metal CONTRIBUTOR:           EAG
 #Li-Pb EAM potential from Belashchenko
 ###############
 2 Li Pb
        1001   6.0000000000000001E-003        1001   9.0100000000000006E-003   9.0099999999999998     
 3 amassLi alat BCC
  0.5645870000000000E+00
  0.5184834799999998E+00
  0.4731719599999999E+00
  0.4286524399999998E+00
  0.3849249199999998E+00
  0.3419893999999996E+00
  0.2998458799999996E+00
  0.2584943599999999E+00
  0.2179348400000000E+00
  0.1781673199999998E+00
  0.1391917999999999E+00
  0.1010082799999998E+00
  0.6361675999999972E-01
  0.2701723999999972E-01
 -0.8790280000000372E-02
 -0.4380580000000001E-01
 -0.7802931999999996E-01
 -0.1114608400000002E+00
 -0.1441003600000000E+00
 -0.1759478800000001E+00
 -0.2070034000000002E+00
 -0.2372669200000002E+00
 -0.2667384400000001E+00
 -0.2954179600000002E+00
 -0.3233054800000003E+00
 -0.3504010000000001E+00
 -0.3767045200000002E+00
 -0.4022160400000002E+00
 -0.4269355600000002E+00
 -0.4508630800000001E+00
 -0.4739986000000000E+00
 -0.4963421200000001E+00
 -0.5178936400000000E+00
 -0.5386531600000002E+00
 -0.5586206800000002E+00
 -0.5777962000000001E+00
 -0.5961797200000001E+00
 -0.6137712400000001E+00
 -0.6305707600000001E+00
 -0.6465782800000001E+00
 -0.6617938000000000E+00
 -0.6762173200000000E+00
 -0.6898488400000000E+00
 -0.7026883600000000E+00
 -0.7147358800000001E+00
 -0.7259914000000001E+00
 -0.7364549200000000E+00
 -0.7461264400000001E+00
 -0.7550059600000001E+00
 -0.7630934800000000E+00
 -0.7703890000000000E+00
 -0.7768925200000001E+00
 -0.7826040400000001E+00
 -0.7875235600000001E+00
 -0.7916510800000001E+00
 -0.7949866000000001E+00
 -0.7975301200000001E+00
 -0.7992816400000000E+00
 -0.8002411600000000E+00
 -0.8006006800000001E+00
 -0.8009842000000000E+00
 -0.8014397200000000E+00
 -0.8019672400000001E+00
 -0.8025667600000000E+00
 -0.8032382800000001E+00
 -0.8039818000000001E+00
 -0.8047973200000000E+00
 -0.8056848400000001E+00
 -0.8066443599999999E+00
 -0.8076758800000000E+00
 -0.8087794000000000E+00
 -0.8099549200000000E+00
 -0.8112024400000001E+00
 -0.8125219600000000E+00
 -0.8139134800000001E+00
 -0.8153770000000000E+00
 -0.8169125200000000E+00
 -0.8185200400000000E+00
 -0.8201995599999999E+00
 -0.8219510800000001E+00
 -0.8237746000000000E+00
 -0.8256701200000000E+00
 -0.8276376400000001E+00
 -0.8296771600000000E+00
 -0.8317886800000001E+00
 -0.8339722000000001E+00
 -0.8362277200000001E+00
 -0.8385552400000000E+00
 -0.8409547600000000E+00
 -0.8434262800000001E+00
 -0.8459698000000000E+00
 -0.8485853200000001E+00
 -0.8513684000000000E+00
 -0.8539586000000000E+00
 -0.8564228000000000E+00
 -0.8587610000000001E+00
 -0.8609732000000000E+00
 -0.8630593999999999E+00
 -0.8650196000000000E+00
 -0.8668538000000000E+00
 -0.8685620000000001E+00
 -0.8701441999999999E+00
 -0.8716003999999999E+00
 -0.8729306000000000E+00
 -0.8741348000000000E+00
 -0.8752130000000000E+00
 -0.8761652000000000E+00
 -0.8769914000000000E+00
 -0.8776916000000000E+00
 -0.8782658000000000E+00
 -0.8787140000000000E+00
 -0.8790361999999999E+00
 -0.8792323999999999E+00
 -0.8793025999999999E+00
 -0.8792468000000000E+00
 -0.8790650000000000E+00
 -0.8787571999999999E+00
 -0.8783361199999999E+00
 -0.8779468399999999E+00
 -0.8776309999999999E+00
 -0.8773886000000000E+00
 -0.8772196400000000E+00
 -0.8771241200000000E+00
 -0.8771020400000000E+00
 -0.8771534000000000E+00
 -0.8772781999999999E+00
 -0.8774764399999999E+00
 -0.8777481199999999E+00
 -0.8780932400000000E+00
 -0.8785118000000000E+00
 -0.8790038000000000E+00
 -0.8795692399999999E+00
 -0.8802081200000000E+00
 -0.8809204399999999E+00
 -0.8817061999999999E+00
 -0.8825653999999999E+00
 -0.8834980399999999E+00
 -0.8845041200000000E+00
 -0.8855836399999999E+00
 -0.8867366000000000E+00
 -0.8879627999999999E+00
 -0.8891647200000000E+00
 -0.8902442399999999E+00
 -0.8912013600000001E+00
 -0.8920360800000000E+00
 -0.8927484000000000E+00
 -0.8933383200000000E+00
 -0.8938058400000001E+00
 -0.8941509599999999E+00
 -0.8943736800000001E+00
 -0.8944740000000000E+00
 -0.8945119464000001E+00
 -0.8945475456000000E+00
 -0.8945807976000001E+00
 -0.8946117024000000E+00
 -0.8946402600000001E+00
 -0.8946664704000000E+00
 -0.8946903336000001E+00
 -0.8947118496000001E+00
 -0.8947310184000000E+00
 -0.8947478400000001E+00
 -0.8947623144000001E+00
 -0.8947744416000001E+00
 -0.8947842216000000E+00
 -0.8947916544000001E+00
 -0.8947967400000001E+00
 -0.8947994784000001E+00
 -0.8947998696000000E+00
 -0.8947979136000000E+00
 -0.8947936104000001E+00
 -0.8947869600000000E+00
 -0.8947779624000001E+00
 -0.8947666176000001E+00
 -0.8947529256000001E+00
 -0.8947368864000000E+00
 -0.8947185000000001E+00
 -0.8946977664000001E+00
 -0.8946746856000001E+00
 -0.8946492576000000E+00
 -0.8946214824000001E+00
 -0.8945913600000001E+00
 -0.8945588904000000E+00
 -0.8945240736000001E+00
 -0.8944869096000000E+00
 -0.8944479200000000E+00
 -0.8944088000000000E+00
 -0.8943696799999999E+00
 -0.8943305600000000E+00
 -0.8942914399999999E+00
 -0.8942523200000000E+00
 -0.8942132000000000E+00
 -0.8941740800000000E+00
 -0.8941349600000000E+00
 -0.8940958400000000E+00
 -0.8940567200000000E+00
 -0.8940176000000000E+00
 -0.8939784800000000E+00
 -0.8939393600000000E+00
 -0.8939002400000000E+00
 -0.8938611200000000E+00
 -0.8938220000000000E+00
 -0.8937828799999999E+00
 -0.8937437600000000E+00
 -0.8937046399999999E+00
 -0.8936655200000000E+00
 -0.8936264000000000E+00
 -0.8935872800000000E+00
 -0.8935481600000000E+00
 -0.8935090400000000E+00
 -0.8934699200000000E+00
 -0.8934308000000000E+00
 -0.8933916800000000E+00
 -0.8933525600000000E+00
 -0.8933134400000000E+00
 -0.8932743200000000E+00
 -0.8932352000000000E+00
 -0.8931960799999999E+00
 -0.8931569600000000E+00
 -0.8931178399999999E+00
 -0.8930787200000000E+00
 -0.8930396000000000E+00
 -0.8930004800000000E+00
 -0.8929613600000000E+00
 -0.8929222400000000E+00
 -0.8928831200000000E+00
 -0.8928440000000000E+00
 -0.8928048800000000E+00
 -0.8927657600000000E+00
 -0.8927266400000000E+00
 -0.8926875200000000E+00
 -0.8926484000000000E+00
 -0.8926092799999999E+00
 -0.8925701600000000E+00
 -0.8925310399999999E+00
 -0.8924919200000000E+00
 -0.8924528000000000E+00
 -0.8924136800000000E+00
 -0.8923745600000000E+00
 -0.8923354400000000E+00
 -0.8922963200000000E+00
 -0.8922572000000000E+00
 -0.8922180800000000E+00
 -0.8921789600000000E+00
 -0.8921398400000000E+00
 -0.8921007200000000E+00
 -0.8920616000000000E+00
 -0.8920224800000000E+00
 -0.8919833600000000E+00
 -0.8919442399999999E+00
 -0.8919051200000000E+00
 -0.8918660000000000E+00
 -0.8918268800000000E+00
 -0.8917877600000000E+00
 -0.8917486400000000E+00
 -0.8917095200000000E+00
 -0.8916704000000000E+00
 -0.8916312800000000E+00
 -0.8915921600000000E+00
 -0.8915530400000000E+00
 -0.8915139200000000E+00
 -0.8914748000000000E+00
 -0.8914356800000000E+00
 -0.8913965600000000E+00
 -0.8913574399999999E+00
 -0.8913183200000000E+00
 -0.8912791999999999E+00
 -0.8912400800000000E+00
 -0.8912009600000000E+00
 -0.8911618400000000E+00
 -0.8911227200000000E+00
 -0.8910836000000000E+00
 -0.8910444800000000E+00
 -0.8910053600000000E+00
 -0.8909662400000000E+00
 -0.8909271200000000E+00
 -0.8908880000000000E+00
 -0.8908488800000000E+00
 -0.8908097600000000E+00
 -0.8907706399999999E+00
 -0.8907315200000000E+00
 -0.8906923999999999E+00
 -0.8906532800000000E+00
 -0.8906141600000000E+00
 -0.8905750400000000E+00
 -0.8905359200000000E+00
 -0.8904968000000000E+00
 -0.8904576800000000E+00
 -0.8904185600000000E+00
 -0.8903794400000000E+00
 -0.8903403200000000E+00
 -0.8903012000000000E+00
 -0.8902620800000000E+00
 -0.8902229600000000E+00
 -0.8901838399999999E+00
 -0.8901447200000000E+00
 -0.8901055999999999E+00
 -0.8900664800000000E+00
 -0.8900273600000000E+00
 -0.8899882400000000E+00
 -0.8899491200000000E+00
 -0.8899100000000000E+00
 -0.8898708800000000E+00
 -0.8898317600000000E+00
 -0.8897926400000000E+00
 -0.8897535200000000E+00
 -0.8897144000000000E+00
 -0.8896752800000000E+00
 -0.8896361600000000E+00
 -0.8895970400000000E+00
 -0.8895579200000000E+00
 -0.8895187999999999E+00
 -0.8894796800000000E+00
 -0.8894405599999999E+00
 -0.8894014400000000E+00
 -0.8893623200000000E+00
 -0.8893232000000000E+00
 -0.8892840800000000E+00
 -0.8892449600000000E+00
 -0.8892058400000000E+00
 -0.8891667200000000E+00
 -0.8891276000000000E+00
 -0.8890884800000000E+00
 -0.8890493600000000E+00
 -0.8890102400000000E+00
 -0.8889711200000000E+00
 -0.8889319999999999E+00
 -0.8888928800000000E+00
 -0.8888537599999999E+00
 -0.8888146400000000E+00
 -0.8887755200000000E+00
 -0.8887364000000000E+00
 -0.8886972800000000E+00
 -0.8886581600000000E+00
 -0.8886190400000000E+00
 -0.8885799200000000E+00
 -0.8885408000000000E+00
 -0.8885016800000000E+00
 -0.8884625600000000E+00
 -0.8884234400000000E+00
 -0.8883843200000000E+00
 -0.8883451999999999E+00
 -0.8883060800000000E+00
 -0.8882669599999999E+00
 -0.8882278400000000E+00
 -0.8881887200000000E+00
 -0.8881496000000000E+00
 -0.8881104800000000E+00
 -0.8880713600000000E+00
 -0.8880322400000000E+00
 -0.8879931200000000E+00
 -0.8879540000000000E+00
 -0.8879148800000000E+00
 -0.8878757600000000E+00
 -0.8878366400000000E+00
 -0.8877975200000000E+00
 -0.8877583999999999E+00
 -0.8877192800000000E+00
 -0.8876801599999999E+00
 -0.8876410400000000E+00
 -0.8876019200000000E+00
 -0.8875628000000000E+00
 -0.8875236800000000E+00
 -0.8874845600000000E+00
 -0.8874454400000000E+00
 -0.8874063200000000E+00
 -0.8873672000000000E+00
 -0.8873280800000000E+00
 -0.8872889600000000E+00
 -0.8872498400000000E+00
 -0.8872107200000000E+00
 -0.8871715999999999E+00
 -0.8871324800000000E+00
 -0.8870933599999999E+00
 -0.8870542400000000E+00
 -0.8870151200000000E+00
 -0.8869760000000000E+00
 -0.8869368800000000E+00
 -0.8868977600000000E+00
 -0.8868586400000000E+00
 -0.8868195200000000E+00
 -0.8867804000000000E+00
 -0.8867412800000000E+00
 -0.8867021600000000E+00
 -0.8866630400000000E+00
 -0.8866239200000000E+00
 -0.8865848000000000E+00
 -0.8865456800000000E+00
 -0.8865065599999999E+00
 -0.8864674400000000E+00
 -0.8864283200000000E+00
 -0.8863892000000000E+00
 -0.8863500800000000E+00
 -0.8863109600000000E+00
 -0.8862718400000000E+00
 -0.8862327200000000E+00
 -0.8861936000000000E+00
 -0.8861544800000000E+00
 -0.8861153600000000E+00
 -0.8860762400000000E+00
 -0.8860371200000000E+00
 -0.8859980000000000E+00
 -0.8859588800000000E+00
 -0.8859197599999999E+00
 -0.8858806400000000E+00
 -0.8858415200000000E+00
 -0.8858024000000000E+00
 -0.8857632800000000E+00
 -0.8857241600000000E+00
 -0.8856850400000000E+00
 -0.8856459200000000E+00
 -0.8856068000000000E+00
 -0.8855676800000000E+00
 -0.8855285600000000E+00
 -0.8854894400000000E+00
 -0.8854503200000000E+00
 -0.8854112000000000E+00
 -0.8853720800000000E+00
 -0.8853329599999999E+00
 -0.8852938400000000E+00
 -0.8852547199999999E+00
 -0.8852156000000000E+00
 -0.8851764800000000E+00
 -0.8851373600000000E+00
 -0.8850982400000000E+00
 -0.8850591200000000E+00
 -0.8850200000000000E+00
 -0.8849808800000000E+00
 -0.8849417600000000E+00
 -0.8849026400000000E+00
 -0.8848635200000000E+00
 -0.8848244000000000E+00
 -0.8847852800000000E+00
 -0.8847461599999999E+00
 -0.8847070400000000E+00
 -0.8846679199999999E+00
 -0.8846288000000000E+00
 -0.8845896800000000E+00
 -0.8845505600000000E+00
 -0.8845114400000000E+00
 -0.8844723200000000E+00
 -0.8844332000000000E+00
 -0.8843940800000000E+00
 -0.8843549600000000E+00
 -0.8843158400000000E+00
 -0.8842767200000000E+00
 -0.8842376000000000E+00
 -0.8841984800000000E+00
 -0.8841593599999999E+00
 -0.8841202400000000E+00
 -0.8840811199999999E+00
 -0.8840420000000000E+00
 -0.8840028800000000E+00
 -0.8839637600000000E+00
 -0.8839246400000000E+00
 -0.8838855200000000E+00
 -0.8838464000000000E+00
 -0.8838072800000000E+00
 -0.8837681600000000E+00
 -0.8837290400000000E+00
 -0.8836899200000000E+00
 -0.8836508000000000E+00
 -0.8836116800000000E+00
 -0.8835725600000000E+00
 -0.8835334400000000E+00
 -0.8834943199999999E+00
 -0.8834552000000000E+00
 -0.8834160799999999E+00
 -0.8833769600000000E+00
 -0.8833378400000000E+00
 -0.8832987200000000E+00
 -0.8832596000000000E+00
 -0.8832204800000000E+00
 -0.8831813600000000E+00
 -0.8831422400000000E+00
 -0.8831031200000000E+00
 -0.8830640000000000E+00
 -0.8830248800000000E+00
 -0.8829857600000000E+00
 -0.8829466400000000E+00
 -0.8829075199999999E+00
 -0.8828684000000000E+00
 -0.8828292799999999E+00
 -0.8827901600000000E+00
 -0.8827510400000000E+00
 -0.8827119200000000E+00
 -0.8826728000000000E+00
 -0.8826336800000000E+00
 -0.8825945600000000E+00
 -0.8825554400000000E+00
 -0.8825163200000000E+00
 -0.8824772000000000E+00
 -0.8824380800000000E+00
 -0.8823989600000000E+00
 -0.8823598400000000E+00
 -0.8823207199999999E+00
 -0.8822816000000000E+00
 -0.8822424799999999E+00
 -0.8822033600000000E+00
 -0.8821642400000000E+00
 -0.8821251200000000E+00
 -0.8820860000000000E+00
 -0.8820468800000000E+00
 -0.8820077600000000E+00
 -0.8819686400000000E+00
 -0.8819295200000000E+00
 -0.8818904000000000E+00
 -0.8818512800000000E+00
 -0.8818121600000000E+00
 -0.8817730400000000E+00
 -0.8817339199999999E+00
 -0.8816948000000000E+00
 -0.8816556799999999E+00
 -0.8816165600000000E+00
 -0.8815774400000000E+00
 -0.8815383200000000E+00
 -0.8814992000000000E+00
 -0.8814600800000000E+00
 -0.8814209600000000E+00
 -0.8813818400000000E+00
 -0.8813427200000000E+00
 -0.8813036000000000E+00
 -0.8812644800000000E+00
 -0.8812253600000000E+00
 -0.8811862400000000E+00
 -0.8811471200000000E+00
 -0.8811080000000000E+00
 -0.8810688799999999E+00
 -0.8810297600000000E+00
 -0.8809906400000000E+00
 -0.8809515200000000E+00
 -0.8809124000000000E+00
 -0.8808732800000000E+00
 -0.8808341600000000E+00
 -0.8807950400000000E+00
 -0.8807559200000000E+00
 -0.8807168000000000E+00
 -0.8806776800000000E+00
 -0.8806385600000000E+00
 -0.8805994400000000E+00
 -0.8805603200000000E+00
 -0.8805212000000000E+00
 -0.8804820799999999E+00
 -0.8804429600000000E+00
 -0.8804038400000000E+00
 -0.8803647200000000E+00
 -0.8803256000000000E+00
 -0.8802864800000000E+00
 -0.8802473600000000E+00
 -0.8802082400000000E+00
 -0.8801691200000000E+00
 -0.8801300000000000E+00
 -0.8800908800000000E+00
 -0.8800517600000000E+00
 -0.8800126400000000E+00
 -0.8799735200000000E+00
 -0.8799344000000000E+00
 -0.8798952799999999E+00
 -0.8798561600000000E+00
 -0.8798170399999999E+00
 -0.8797779200000000E+00
 -0.8797388000000000E+00
 -0.8796996800000000E+00
 -0.8796605600000000E+00
 -0.8796214400000000E+00
 -0.8795823200000000E+00
 -0.8795432000000000E+00
 -0.8795040800000000E+00
 -0.8794649600000000E+00
 -0.8794258400000000E+00
 -0.8793867200000000E+00
 -0.8793476000000000E+00
 -0.8793084799999999E+00
 -0.8792693600000000E+00
 -0.8792302399999999E+00
 -0.8791911200000000E+00
 -0.8791520000000000E+00
 -0.8791128800000000E+00
 -0.8790737600000000E+00
 -0.8790346400000000E+00
 -0.8789955200000000E+00
 -0.8789564000000000E+00
 -0.8789172800000000E+00
 -0.8788781600000000E+00
 -0.8788390400000000E+00
 -0.8787999200000000E+00
 -0.8787608000000000E+00
 -0.8787216799999999E+00
 -0.8786825600000000E+00
 -0.8786434399999999E+00
 -0.8786043200000000E+00
 -0.8785651999999999E+00
 -0.8785260800000000E+00
 -0.8784869600000000E+00
 -0.8784478400000000E+00
 -0.8784087200000000E+00
 -0.8783696000000000E+00
 -0.8783304800000000E+00
 -0.8782913600000000E+00
 -0.8782522400000000E+00
 -0.8782131200000000E+00
 -0.8781740000000000E+00
 -0.8781348800000000E+00
 -0.8780957600000000E+00
 -0.8780566399999999E+00
 -0.8780175200000000E+00
 -0.8779783999999999E+00
 -0.8779392800000000E+00
 -0.8779001600000000E+00
 -0.8778610400000000E+00
 -0.8778219200000000E+00
 -0.8777828000000000E+00
 -0.8777436800000000E+00
 -0.8777045600000000E+00
 -0.8776654400000000E+00
 -0.8776263200000000E+00
 -0.8775872000000000E+00
 -0.8775480800000000E+00
 -0.8775089600000000E+00
 -0.8774698399999999E+00
 -0.8774307200000000E+00
 -0.8773915999999999E+00
 -0.8773524800000000E+00
 -0.8773133600000000E+00
 -0.8772742400000000E+00
 -0.8772351200000000E+00
 -0.8771960000000000E+00
 -0.8771568800000000E+00
 -0.8771177600000000E+00
 -0.8770786400000000E+00
 -0.8770395200000000E+00
 -0.8770004000000000E+00
 -0.8769612800000000E+00
 -0.8769221600000000E+00
 -0.8768830399999999E+00
 -0.8768439200000000E+00
 -0.8768047999999999E+00
 -0.8767656800000000E+00
 -0.8767265600000000E+00
 -0.8766874400000000E+00
 -0.8766483200000000E+00
 -0.8766092000000000E+00
 -0.8765700800000000E+00
 -0.8765309600000000E+00
 -0.8764918400000000E+00
 -0.8764527200000000E+00
 -0.8764136000000000E+00
 -0.8763744800000000E+00
 -0.8763353600000000E+00
 -0.8762962399999999E+00
 -0.8762571200000000E+00
 -0.8762179999999999E+00
 -0.8761788800000000E+00
 -0.8761397600000000E+00
 -0.8761006400000000E+00
 -0.8760615200000000E+00
 -0.8760224000000000E+00
 -0.8759832800000000E+00
 -0.8759441600000000E+00
 -0.8759050400000000E+00
 -0.8758659200000000E+00
 -0.8758268000000000E+00
 -0.8757876800000000E+00
 -0.8757485600000000E+00
 -0.8757094400000000E+00
 -0.8756703200000000E+00
 -0.8756311999999999E+00
 -0.8755920800000000E+00
 -0.8755529600000000E+00
 -0.8755138400000000E+00
 -0.8754747200000000E+00
 -0.8754356000000000E+00
 -0.8753964800000000E+00
 -0.8753573600000000E+00
 -0.8753182400000000E+00
 -0.8752791200000000E+00
 -0.8752400000000000E+00
 -0.8752008800000000E+00
 -0.8751617600000000E+00
 -0.8751226400000000E+00
 -0.8750835200000000E+00
 -0.8750443999999999E+00
 -0.8750052800000000E+00
 -0.8749661599999999E+00
 -0.8749270400000000E+00
 -0.8748879200000000E+00
 -0.8748488000000000E+00
 -0.8748096800000000E+00
 -0.8747705600000000E+00
 -0.8747314400000000E+00
 -0.8746923200000000E+00
 -0.8746532000000000E+00
 -0.8746140800000000E+00
 -0.8745749600000000E+00
 -0.8745358400000000E+00
 -0.8744967200000000E+00
 -0.8744575999999999E+00
 -0.8744184800000000E+00
 -0.8743793599999999E+00
 -0.8743402400000000E+00
 -0.8743011200000000E+00
 -0.8742620000000000E+00
 -0.8742228800000000E+00
 -0.8741837600000000E+00
 -0.8741446400000000E+00
 -0.8741055200000000E+00
 -0.8740664000000000E+00
 -0.8740272800000000E+00
 -0.8739881600000000E+00
 -0.8739490400000000E+00
 -0.8739099200000000E+00
 -0.8738707999999999E+00
 -0.8738316800000000E+00
 -0.8737925599999999E+00
 -0.8737534400000000E+00
 -0.8737143200000000E+00
 -0.8736752000000000E+00
 -0.8736360800000000E+00
 -0.8735969600000000E+00
 -0.8735578400000000E+00
 -0.8735187200000000E+00
 -0.8734796000000000E+00
 -0.8734404800000000E+00
 -0.8734013600000000E+00
 -0.8733622400000000E+00
 -0.8733231200000000E+00
 -0.8732839999999999E+00
 -0.8732448800000000E+00
 -0.8732057599999999E+00
 -0.8731666400000000E+00
 -0.8731275200000000E+00
 -0.8730884000000000E+00
 -0.8730492800000000E+00
 -0.8730101600000000E+00
 -0.8729710400000000E+00
 -0.8729319200000000E+00
 -0.8728928000000000E+00
 -0.8728536800000000E+00
 -0.8728145600000000E+00
 -0.8727754400000000E+00
 -0.8727363200000000E+00
 -0.8726972000000000E+00
 -0.8726580800000000E+00
 -0.8726189599999999E+00
 -0.8725798400000000E+00
 -0.8725407199999999E+00
 -0.8725016000000000E+00
 -0.8724624800000000E+00
 -0.8724233600000000E+00
 -0.8723842400000000E+00
 -0.8723451200000000E+00
 -0.8723060000000000E+00
 -0.8722668800000000E+00
 -0.8722277600000000E+00
 -0.8721886400000000E+00
 -0.8721495200000000E+00
 -0.8721104000000000E+00
 -0.8720712800000000E+00
 -0.8720321599999999E+00
 -0.8719930400000000E+00
 -0.8719539199999999E+00
 -0.8719148000000000E+00
 -0.8718756800000000E+00
 -0.8718365600000000E+00
 -0.8717974400000000E+00
 -0.8717583200000000E+00
 -0.8717192000000000E+00
 -0.8716800800000000E+00
 -0.8716409600000000E+00
 -0.8716018400000000E+00
 -0.8715627200000000E+00
 -0.8715236000000000E+00
 -0.8714844800000000E+00
 -0.8714453599999999E+00
 -0.8714062400000000E+00
 -0.8713671199999999E+00
 -0.8713280000000000E+00
 -0.8712888800000000E+00
 -0.8712497600000000E+00
 -0.8712106400000000E+00
 -0.8711715200000000E+00
 -0.8711324000000000E+00
 -0.8710932800000000E+00
 -0.8710541600000000E+00
 -0.8710150400000000E+00
 -0.8709759200000000E+00
 -0.8709368000000000E+00
 -0.8708976800000000E+00
 -0.8708585599999999E+00
 -0.8708194400000000E+00
 -0.8707803199999999E+00
 -0.8707412000000000E+00
 -0.8707020800000000E+00
 -0.8706629600000000E+00
 -0.8706238400000000E+00
 -0.8705847200000000E+00
 -0.8705456000000000E+00
 -0.8705064800000000E+00
 -0.8704673600000000E+00
 -0.8704282400000000E+00
 -0.8703891200000000E+00
 -0.8703500000000000E+00
 -0.8703108800000000E+00
 -0.8702717599999999E+00
 -0.8702326400000000E+00
 -0.8701935199999999E+00
 -0.8701544000000000E+00
 -0.8701152800000000E+00
 -0.8700761600000000E+00
 -0.8700370400000000E+00
 -0.8699979200000000E+00
 -0.8699588000000000E+00
 -0.8699196800000000E+00
 -0.8698805600000000E+00
 -0.8698414400000000E+00
 -0.8698023200000000E+00
 -0.8697632000000000E+00
 -0.8697240800000000E+00
 -0.8696849600000000E+00
 -0.8696458400000000E+00
 -0.8696067199999999E+00
 -0.8695676000000000E+00
 -0.8695284800000000E+00
 -0.8694893600000000E+00
 -0.8694502400000000E+00
 -0.8694111200000000E+00
 -0.8693720000000000E+00
 -0.8693328800000000E+00
 -0.8692937600000000E+00
 -0.8692546400000000E+00
 -0.8692155200000000E+00
 -0.8691764000000000E+00
 -0.8691372800000000E+00
 -0.8690981600000000E+00
 -0.8690590400000000E+00
 -0.8690199199999999E+00
 -0.8689808000000000E+00
 -0.8689416800000000E+00
 -0.8689025600000000E+00
 -0.8688634400000000E+00
 -0.8688243200000000E+00
 -0.8687852000000000E+00
 -0.8687460800000000E+00
 -0.8687069600000000E+00
 -0.8686678400000000E+00
 -0.8686287200000000E+00
 -0.8685896000000000E+00
 -0.8685504800000000E+00
 -0.8685113600000000E+00
 -0.8684722400000000E+00
 -0.8684331199999999E+00
 -0.8683940000000000E+00
 -0.8683548799999999E+00
 -0.8683157600000000E+00
 -0.8682766399999999E+00
 -0.8682375200000000E+00
 -0.8681984000000000E+00
 -0.8681592800000000E+00
 -0.8681201600000000E+00
 -0.8680810400000000E+00
 -0.8680419200000000E+00
 -0.8680028000000000E+00
 -0.8679636800000000E+00
 -0.8679245600000000E+00
 -0.8678854400000000E+00
 -0.8678463199999999E+00
 -0.8678072000000000E+00
 -0.8677680799999999E+00
 -0.8677289600000000E+00
 -0.8676898399999999E+00
 -0.8676507200000000E+00
 -0.8676116000000000E+00
 -0.8675724800000000E+00
 -0.8675333600000000E+00
 -0.8674942400000000E+00
 -0.8674551200000000E+00
 -0.8674160000000000E+00
 -0.8673768800000000E+00
 -0.8673377600000000E+00
 -0.8672986400000000E+00
 -0.8672595200000000E+00
 -0.8672204000000000E+00
 -0.8671812799999999E+00
 -0.8671421600000000E+00
 -0.8671030399999999E+00
 -0.8670639200000000E+00
 -0.8670248000000000E+00
 -0.8669856800000000E+00
 -0.8669465600000000E+00
 -0.8669074400000000E+00
 -0.8668683200000000E+00
 -0.8668292000000000E+00
 -0.8667900800000000E+00
 -0.8667509600000000E+00
 -0.8667118400000000E+00
 -0.8666727200000000E+00
 -0.8666336000000000E+00
 -0.8665944799999999E+00
 -0.8665553600000000E+00
 -0.8665162399999999E+00
 -0.8664771200000000E+00
 -0.8664380000000000E+00
 -0.8663988800000000E+00
 -0.8663597600000000E+00
 -0.8663206400000000E+00
 -0.8662815200000000E+00
 -0.8662424000000000E+00
 -0.8662032800000000E+00
 -0.8661641600000000E+00
 -0.8661250400000000E+00
 -0.8660859200000000E+00
 -0.8660468000000000E+00
 -0.8660076799999999E+00
 -0.8659685600000000E+00
 -0.8659294399999999E+00
 -0.8658903200000000E+00
 -0.8658512000000000E+00
 -0.8658120800000000E+00
 -0.8657729600000000E+00
 -0.8657338400000000E+00
 -0.8656947200000000E+00
 -0.8656556000000000E+00
 -0.8656164800000000E+00
 -0.8655773600000000E+00
 -0.8655382400000000E+00
 -0.8654991200000000E+00
 -0.8654600000000000E+00
 -0.8654208799999999E+00
 -0.8653817600000000E+00
 -0.8653426399999999E+00
 -0.8653035200000000E+00
 -0.8652644000000000E+00
 -0.8652252800000000E+00
 -0.8651861600000000E+00
 -0.8651470400000000E+00
 -0.8651079200000000E+00
 -0.8650688000000000E+00
 -0.8650296800000000E+00
 -0.8649905600000000E+00
 -0.8649514400000000E+00
 -0.8649123200000000E+00
 -0.8648732000000000E+00
 -0.8648340799999999E+00
 -0.8647949600000000E+00
 -0.8647558399999999E+00
 -0.8647167200000000E+00
 -0.8646776000000000E+00
 -0.8646384800000000E+00
 -0.8645993600000000E+00
 -0.8645602400000000E+00
 -0.8645211200000000E+00
 -0.8644820000000000E+00
 -0.8644428800000000E+00
 -0.8644037600000000E+00
 -0.8643646400000000E+00
 -0.8643255200000000E+00
 -0.8642864000000000E+00
 -0.8642472800000000E+00
 -0.8642081600000000E+00
 -0.8641690399999999E+00
 -0.8641299200000000E+00
 -0.8640908000000000E+00
 -0.8640516800000000E+00
 -0.8640125600000000E+00
 -0.8639734400000000E+00
 -0.8639343200000000E+00
 -0.8638952000000000E+00
 -0.8638560800000000E+00
 -0.8638169600000000E+00
 -0.8637778400000000E+00
 -0.8637387200000000E+00
 -0.8636996000000000E+00
 -0.8636604800000000E+00
 -0.8636213600000000E+00
 -0.8635822399999999E+00
 -0.8635431200000000E+00
 -0.8635040000000000E+00
 -0.8634648800000000E+00
 -0.8634257600000000E+00
 -0.8633866400000000E+00
 -0.8633475200000000E+00
 -0.8633084000000000E+00
 -0.8632692800000000E+00
 -0.8632301600000000E+00
 -0.8631910400000000E+00
 -0.8631519200000000E+00
 -0.8631128000000000E+00
 -0.8630736800000000E+00
 -0.8630345600000000E+00
 -0.8629954399999999E+00
 -0.8629563200000000E+00
 -0.8629172000000001E+00
 -0.8628780800000000E+00
 -0.8628389599999999E+00
 -0.8627998400000000E+00
 -0.8627607200000000E+00
 -0.8627216000000000E+00
 -0.8626824800000000E+00
 -0.8626433600000000E+00
 -0.8626042400000000E+00
 -0.8625651200000000E+00
 -0.8625260000000000E+00
  0.3051100000000000E+01
  0.3017745354893496E+01
  0.2984755342984914E+01
  0.2952125978101756E+01
  0.2919853317648387E+01
  0.2887933462129653E+01
  0.2856362554679706E+01
  0.2825136780595983E+01
  0.2794252366878271E+01
  0.2763705581772823E+01
  0.2733492734321446E+01
  0.2703610173915527E+01
  0.2674054289854931E+01
  0.2644821510911718E+01
  0.2615908304898638E+01
  0.2587311178242333E+01
  0.2559026675561214E+01
  0.2531051379247943E+01
  0.2503381909056490E+01
  0.2476014921693696E+01
  0.2448947110415304E+01
  0.2422175204626408E+01
  0.2395695969486266E+01
  0.2369506205517436E+01
  0.2343602748219185E+01
  0.2317982467685123E+01
  0.2292642268225014E+01
  0.2267579087990733E+01
  0.2242789898606295E+01
  0.2218271704801940E+01
  0.2194021544052221E+01
  0.2170036486218035E+01
  0.2146313633192579E+01
  0.2122850118551175E+01
  0.2099643107204915E+01
  0.2076689795058103E+01
  0.2053987408669436E+01
  0.2031533204916889E+01
  0.2009324470666264E+01
  0.1987358522443365E+01
  0.1965632706109752E+01
  0.1944144396542047E+01
  0.1922890997314733E+01
  0.1901869940386436E+01
  0.1881078685789630E+01
  0.1860514721323725E+01
  0.1840175562251528E+01
  0.1820058750999009E+01
  0.1800161856858352E+01
  0.1780482475694255E+01
  0.1761018229653440E+01
  0.1741766766877335E+01
  0.1722725761217902E+01
  0.1703892911956568E+01
  0.1685265943526232E+01
  0.1666842605236305E+01
  0.1648620671000765E+01
  0.1630597939069174E+01
  0.1612772231760646E+01
  0.1595141395200717E+01
  0.1577703299061090E+01
  0.1560455836302235E+01
  0.1543396922918789E+01
  0.1526524497687749E+01
  0.1509836521919416E+01
  0.1493330979211062E+01
  0.1477005875203283E+01
  0.1460859237339029E+01
  0.1444889114625253E+01
  0.1429093577397179E+01
  0.1413470717085138E+01
  0.1398018645983959E+01
  0.1382735497024871E+01
  0.1367619423549918E+01
  0.1352668599088816E+01
  0.1337881217138267E+01
  0.1323255490943680E+01
  0.1308789653283276E+01
  0.1294481956254556E+01
  0.1280330671063102E+01
  0.1266334087813690E+01
  0.1252490515303679E+01
  0.1238798280818668E+01
  0.1225255729930381E+01
  0.1211861226296761E+01
  0.1198613151464254E+01
  0.1185509904672252E+01
  0.1172549902659670E+01
  0.1159731579473646E+01
  0.1147053386280322E+01
  0.1134513791177705E+01
  0.1122111279010564E+01
  0.1109844351187351E+01
  0.1097711525499137E+01
  0.1085711335940504E+01
  0.1073842332532421E+01
  0.1062103081147032E+01
  0.1050492163334380E+01
  0.1039008176151009E+01
  0.1027649731990453E+01
  0.1016415458415567E+01
  0.1005303997992698E+01
  0.9943140081276667E+00
  0.9834441609035430E+00
  0.9726931429201924E+00
  0.9620596551355792E+00
  0.9515424127088046E+00
  0.9411401448448574E+00
  0.9308515946410673E+00
  0.9206755189352315E+00
  0.9106106881554040E+00
  0.9006558861713286E+00
  0.8908099101474919E+00
  0.8810715703977865E+00
  0.8714396902417609E+00
  0.8619131058624434E+00
  0.8524906661657158E+00
  0.8431712326412280E+00
  0.8339536792248333E+00
  0.8248368921625255E+00
  0.8158197698758639E+00
  0.8069012228288713E+00
  0.7980801733963845E+00
  0.7893555557338451E+00
  0.7807263156485154E+00
  0.7721914104720989E+00
  0.7637498089347556E+00
  0.7554004910404950E+00
  0.7471424479439283E+00
  0.7389746818283718E+00
  0.7308962057852803E+00
  0.7229060436949984E+00
  0.7150032301088186E+00
  0.7071868101323237E+00
  0.6994558393100090E+00
  0.6918093835111636E+00
  0.6842465188169996E+00
  0.6767663314090149E+00
  0.6693679174585778E+00
  0.6620503830177170E+00
  0.6548128439111059E+00
  0.6476544256292289E+00
  0.6405742632227133E+00
  0.6335715011978192E+00
  0.6266452934130701E+00
  0.6197948029770128E+00
  0.6130192021470979E+00
  0.6063176722296620E+00
  0.5996894034810067E+00
  0.5931335950095571E+00
  0.5866494546790898E+00
  0.5802361990130203E+00
  0.5738930530997345E+00
  0.5676192504989579E+00
  0.5614140331491455E+00
  0.5552766512758862E+00
  0.5492063633013083E+00
  0.5432024357544731E+00
  0.5372641431827517E+00
  0.5313907680641681E+00
  0.5255816007207008E+00
  0.5198359392325336E+00
  0.5141530893532418E+00
  0.5085323644259073E+00
  0.5029730853001502E+00
  0.4974745802500668E+00
  0.4920361848930649E+00
  0.4866572421095881E+00
  0.4813371019637143E+00
  0.4760751216246258E+00
  0.4708706652889355E+00
  0.4657231041038626E+00
  0.4606318160912494E+00
  0.4555961860724078E+00
  0.4506156055937862E+00
  0.4456894728534523E+00
  0.4408171926283756E+00
  0.4359981762025079E+00
  0.4312318412956488E+00
  0.4265176119930888E+00
  0.4218549186760219E+00
  0.4172431979527182E+00
  0.4126818925904503E+00
  0.4081704514481623E+00
  0.4037083294098762E+00
  0.3992949873188250E+00
  0.3949298919123076E+00
  0.3906125157572536E+00
  0.3863423371864949E+00
  0.3821188402357321E+00
  0.3779415145811905E+00
  0.3738098554779588E+00
  0.3697233636990001E+00
  0.3656815454748307E+00
  0.3616839124338583E+00
  0.3577299815433719E+00
  0.3538192750511772E+00
  0.3499513204278700E+00
  0.3461256503097407E+00
  0.3423418024423030E+00
  0.3385993196244393E+00
  0.3348977496531578E+00
  0.3312366452689529E+00
  0.3276155641017623E+00
  0.3240340686175169E+00
  0.3204917260652722E+00
  0.3169881084249201E+00
  0.3135227923554713E+00
  0.3100953591439027E+00
  0.3067053946545649E+00
  0.3033524892791419E+00
  0.3000362378871585E+00
  0.2967562397770289E+00
  0.2935120986276389E+00
  0.2903034224504602E+00
  0.2871298235421849E+00
  0.2839909184378807E+00
  0.2808863278646562E+00
  0.2778156766958336E+00
  0.2747785939056224E+00
  0.2717747125242891E+00
  0.2688036695938149E+00
  0.2658651061240410E+00
  0.2629586670492907E+00
  0.2600840011854683E+00
  0.2572407611876247E+00
  0.2544286035079877E+00
  0.2516471883544521E+00
  0.2488961796495220E+00
  0.2461752449897027E+00
  0.2434840556053370E+00
  0.2408222863208795E+00
  0.2381896155156062E+00
  0.2355857250847525E+00
  0.2330103004010776E+00
  0.2304630302768477E+00
  0.2279436069262352E+00
  0.2254517259281293E+00
  0.2229870861893526E+00
  0.2205493899082804E+00
  0.2181383425388573E+00
  0.2157536527550074E+00
  0.2133950324154331E+00
  0.2110621965287996E+00
  0.2087548632192990E+00
  0.2064727536925917E+00
  0.2042155922021197E+00
  0.2019831060157882E+00
  0.1997750253830111E+00
  0.1975910835021180E+00
  0.1954310164881157E+00
  0.1932945633408032E+00
  0.1911814659132365E+00
  0.1890914688805345E+00
  0.1870243197090298E+00
  0.1849797686257549E+00
  0.1829575685882618E+00
  0.1809574752547721E+00
  0.1789792469546535E+00
  0.1770226446592185E+00
  0.1750874319528428E+00
  0.1731733750043992E+00
  0.1712802425390040E+00
  0.1694078058100720E+00
  0.1675558385716771E+00
  0.1657241170512153E+00
  0.1639124199223661E+00
  0.1621205282783496E+00
  0.1603482256054764E+00
  0.1585952977569863E+00
  0.1568615329271726E+00
  0.1551467216257902E+00
  0.1534506566527425E+00
  0.1517731330730459E+00
  0.1501139481920673E+00
  0.1484729015310327E+00
  0.1468497948028034E+00
  0.1452444318879168E+00
  0.1436566188108898E+00
  0.1420861637167802E+00
  0.1405328768480057E+00
  0.1389965705214150E+00
  0.1374770591056099E+00
  0.1359741589985162E+00
  0.1344876886051988E+00
  0.1330174683159194E+00
  0.1315633204844345E+00
  0.1301250694065310E+00
  0.1287025412987948E+00
  0.1272955642776134E+00
  0.1259039683384072E+00
  0.1245275853350878E+00
  0.1231662489597406E+00
  0.1218197947225306E+00
  0.1204880599318265E+00
  0.1191708836745432E+00
  0.1178681067966982E+00
  0.1165795718841815E+00
  0.1153051232437355E+00
  0.1140446068841417E+00
  0.1127978704976151E+00
  0.1115647634414002E+00
  0.1103451367195691E+00
  0.1091388429650183E+00
  0.1079457364216626E+00
  0.1067656729268231E+00
  0.1055985098938084E+00
  0.1044441062946855E+00
  0.1033023226432401E+00
  0.1021730209781216E+00
  0.1010560648461742E+00
  0.9995131928594879E-01
  0.9885865081139544E-01
  0.9777792739573490E-01
  0.9670901845550538E-01
  0.9565179483478443E-01
  0.9460612878958290E-01
  0.9357189397240984E-01
  0.9254896541700584E-01
  0.9153721952324352E-01
  0.9053653404219268E-01
  0.8954678806134966E-01
  0.8856786199002666E-01
  0.8759963754490221E-01
  0.8664199773572893E-01
  0.8569482685119753E-01
  0.8475801044495553E-01
  0.8383143532177868E-01
  0.8291498952389373E-01
  0.8200856231745049E-01
  0.8111204417914200E-01
  0.8022532678297066E-01
  0.7934830298715950E-01
  0.7848086682120622E-01
  0.7762291347307863E-01
  0.7677433927655036E-01
  0.7593504169867495E-01
  0.7510491932739675E-01
  0.7428387185929740E-01
  0.7347180008747613E-01
  0.7266860588956270E-01
  0.7187419221586115E-01
  0.7108846307762358E-01
  0.7031132353545158E-01
  0.6954267968782493E-01
  0.6878243865975549E-01
  0.6803050859156499E-01
  0.6728679862778583E-01
  0.6655121890618293E-01
  0.6582368054689579E-01
  0.6510409564169913E-01
  0.6439237724338090E-01
  0.6368843935523659E-01
  0.6299219692067823E-01
  0.6230356581295701E-01
  0.6162246282499825E-01
  0.6094880565934764E-01
  0.6028251291822712E-01
  0.5962350409369967E-01
  0.5897169955794156E-01
  0.5832702055362102E-01
  0.5768938918438179E-01
  0.5705872840543123E-01
  0.5643496201423083E-01
  0.5581801464128871E-01
  0.5520781174105281E-01
  0.5460427958290343E-01
  0.5400734524224460E-01
  0.5341693659169253E-01
  0.5283298229236028E-01
  0.5225541178523833E-01
  0.5168415528266845E-01
  0.5111914375991182E-01
  0.5056030894680826E-01
  0.5000758331952763E-01
  0.4946090009241062E-01
  0.4892019320989918E-01
  0.4838539733855515E-01
  0.4785644785916584E-01
  0.4733328085893626E-01
  0.4681583312376657E-01
  0.4630404213061374E-01
  0.4579784603993721E-01
  0.4529718368822652E-01
  0.4480199458061129E-01
  0.4431221888355129E-01
  0.4382779741760699E-01
  0.4334867165028899E-01
  0.4287478368898525E-01
  0.4240607627396636E-01
  0.4194249277146642E-01
  0.4148397716684041E-01
  0.4103047405779572E-01
  0.4058192864769791E-01
  0.4013828673894980E-01
  0.3969949472644260E-01
  0.3926549959107894E-01
  0.3883624889336664E-01
  0.3841169076708231E-01
  0.3799177391300451E-01
  0.3757644759271515E-01
  0.3716566162246898E-01
  0.3675936636712962E-01
  0.3635751273417245E-01
  0.3596005216775264E-01
  0.3556693664283812E-01
  0.3517811865940676E-01
  0.3479355123670709E-01
  0.3441318790758141E-01
  0.3403698271285138E-01
  0.3366489019576462E-01
  0.3329686539650235E-01
  0.3293286384674672E-01
  0.3257284156430792E-01
  0.3221675504780964E-01
  0.3186456127143299E-01
  0.3151621767971749E-01
  0.3117168218241938E-01
  0.3083091314942558E-01
  0.3049386940572381E-01
  0.3016051022642715E-01
  0.2983079533185354E-01
  0.2950468488265858E-01
  0.2918213947502189E-01
  0.2886312013588591E-01
  0.2854758831824673E-01
  0.2823550589649662E-01
  0.2792683516181726E-01
  0.2762153881762327E-01
  0.2731957997505589E-01
  0.2702092214852553E-01
  0.2672552925130338E-01
  0.2643336559116089E-01
  0.2614439586605729E-01
  0.2585858515987386E-01
  0.2557589893819514E-01
  0.2529630304413619E-01
  0.2501976369421525E-01
  0.2474624747427189E-01
  0.2447572133542950E-01
  0.2420815259010192E-01
  0.2394350890804401E-01
  0.2368175831244496E-01
  0.2342286917606477E-01
  0.2316681021741259E-01
  0.2291355049696699E-01
  0.2266305941343769E-01
  0.2241530670006780E-01
  0.2217026242097693E-01
  0.2192789696754381E-01
  0.2168818105482893E-01
  0.2145108571803584E-01
  0.2121658230901145E-01
  0.2098464249278453E-01
  0.2075523824414181E-01
  0.2052834184424202E-01
  0.2030392587726627E-01
  0.2008196322710569E-01
  0.1986242707408481E-01
  0.1964529089172111E-01
  0.1943052844351966E-01
  0.1921811377980317E-01
  0.1900802123457627E-01
  0.1880022542242454E-01
  0.1859470123544699E-01
  0.1839142384022236E-01
  0.1819036867480862E-01
  0.1799151144577491E-01
  0.1779482812526644E-01
  0.1760029494810099E-01
  0.1740788840889752E-01
  0.1721758525923595E-01
  0.1702936250484810E-01
  0.1684319740283926E-01
  0.1665906745894016E-01
  0.1647695042478912E-01
  0.1629682429524361E-01
  0.1611866730572151E-01
  0.1594245792957120E-01
  0.1576817487547065E-01
  0.1559579708485459E-01
  0.1542530372937022E-01
  0.1525667420836036E-01
  0.1508988814637439E-01
  0.1492492539070623E-01
  0.1476176600895929E-01
  0.1460039028663814E-01
  0.1444077872476626E-01
  0.1428291203753015E-01
  0.1412677114994886E-01
  0.1397233719556935E-01
  0.1381959151418669E-01
  0.1366851564958948E-01
  0.1351909134732973E-01
  0.1337130055251717E-01
  0.1322512540763775E-01
  0.1308054825039584E-01
  0.1293755161158019E-01
  0.1279611821295302E-01
  0.1265623096516242E-01
  0.1251787296567734E-01
  0.1238102749674531E-01
  0.1224567802337249E-01
  0.1211180819132565E-01
  0.1197940182515617E-01
  0.1184844292624552E-01
  0.1171891567087219E-01
  0.1159080440829967E-01
  0.1146409365888545E-01
  0.1133876811221053E-01
  0.1121481262522953E-01
  0.1109221222044094E-01
  0.1097095208407739E-01
  0.1085101756431571E-01
  0.1073239416950656E-01
  0.1061506756642341E-01
  0.1049902357853064E-01
  0.1038424818427064E-01
  0.1027072751536952E-01
  0.1015844785516148E-01
  0.1004739563693139E-01
  0.9937557442275532E-02
  0.9828919999480283E-02
  0.9721470181918454E-02
  0.9615195006463254E-02
  0.9510081631919506E-02
  0.9406117357472080E-02
  0.9303289621151204E-02
  0.9201585998314684E-02
  0.9100994200146555E-02
  0.9001502072172308E-02
  0.8903097592790191E-02
  0.8805768871818713E-02
  0.8709504149059903E-02
  0.8614291792878355E-02
  0.8520120298795788E-02
  0.8426978288100935E-02
  0.8334854506474698E-02
  0.8243737822630243E-02
  0.8153617226968061E-02
  0.8064481830245629E-02
  0.7976320862261728E-02
  0.7889123670555021E-02
  0.7802879719116952E-02
  0.7717578587118698E-02
  0.7633209967651978E-02
  0.7549763666483727E-02
  0.7467229600824269E-02
  0.7385597798109095E-02
  0.7304858394793795E-02
  0.7225001635162316E-02
  0.7146017870148138E-02
  0.7067897556168420E-02
  0.6990631253970814E-02
  0.6914209627492941E-02
  0.6838623442734331E-02
  0.6763863566640650E-02
  0.6689920966000192E-02
  0.6616786706352358E-02
  0.6544451950908155E-02
  0.6472907959482401E-02
  0.6402146087437699E-02
  0.6332157784639866E-02
  0.6262934594424842E-02
  0.6194468152576893E-02
  0.6126750186317920E-02
  0.6059772513307912E-02
  0.5993527040656232E-02
  0.5928005763943795E-02
  0.5863200766255864E-02
  0.5799104217225464E-02
  0.5735708372087248E-02
  0.5673005570741712E-02
  0.5610988236829581E-02
  0.5549648876816397E-02
  0.5488980079087082E-02
  0.5428974513050365E-02
  0.5369624928253065E-02
  0.5310924153503982E-02
  0.5252865096007447E-02
  0.5195440740506259E-02
  0.5138644148434071E-02
  0.5082468457076978E-02
  0.5026906878744308E-02
  0.4971952699948479E-02
  0.4917599280593783E-02
  0.4863840053174099E-02
  0.4810668521979308E-02
  0.4758078262310453E-02
  0.4706062919703412E-02
  0.4654616209161122E-02
  0.4603731914394138E-02
  0.4553403887069532E-02
  0.4503626046067999E-02
  0.4454392376749058E-02
  0.4405696930224337E-02
  0.4357533822638727E-02
  0.4309897234459482E-02
  0.4262781409773007E-02
  0.4216180655589408E-02
  0.4170089341154582E-02
  0.4124501897269878E-02
  0.4079412815619151E-02
  0.4034816648103204E-02
  0.3990708006181507E-02
  0.3947081560221074E-02
  0.3903932038852521E-02
  0.3861254228333088E-02
  0.3819042971916702E-02
  0.3777293169230860E-02
  0.3735999775660373E-02
  0.3695157801737813E-02
  0.3654762312540638E-02
  0.3614808427094926E-02
  0.3575291317785576E-02
  0.3536206209773024E-02
  0.3497548380416267E-02
  0.3459313158702257E-02
  0.3421495924681485E-02
  0.3384092108909764E-02
  0.3347097191896093E-02
  0.3310506703556588E-02
  0.3274316222674339E-02
  0.3238521376365213E-02
  0.3203117839549480E-02
  0.3168101334429199E-02
  0.3133467629971356E-02
  0.3099212541396607E-02
  0.3065331929673653E-02
  0.3031821701019101E-02
  0.2998677806402836E-02
  0.2965896241058759E-02
  0.2933473044000901E-02
  0.2901404297544821E-02
  0.2869686126834226E-02
  0.2838314699372783E-02
  0.2807286224561025E-02
  0.2776596953238352E-02
  0.2746243177230006E-02
  0.2716221228899022E-02
  0.2686527480703063E-02
  0.2657158344756120E-02
  0.2628110272394964E-02
  0.2599379753750379E-02
  0.2570963317323067E-02
  0.2542857529564175E-02
  0.2515058994460438E-02
  0.2487564353123821E-02
  0.2460370283385683E-02
  0.2433473499395345E-02
  0.2406870751223076E-02
  0.2380558824467392E-02
  0.2354534539866668E-02
  0.2328794752914993E-02
  0.2303336353482207E-02
  0.2278156265438124E-02
  0.2253251446280820E-02
  0.2228618886769033E-02
  0.2204255610558540E-02
  0.2180158673842537E-02
  0.2156325164995930E-02
  0.2132752204223531E-02
  0.2109436943212097E-02
  0.2086376564786155E-02
  0.2063568282567620E-02
  0.2041009340639108E-02
  0.2018697013210943E-02
  0.1996628604291795E-02
  0.1974801447362935E-02
  0.1953212905056028E-02
  0.1931860368834474E-02
  0.1910741258678205E-02
  0.1889853022771952E-02
  0.1869193137196910E-02
  0.1848759105625766E-02
  0.1828548459021078E-02
  0.1808558755336933E-02
  0.1788787579223885E-02
  0.1769232541737097E-02
  0.1749891280047701E-02
  0.1730761457157283E-02
  0.1711840761615511E-02
  0.1693126907240850E-02
  0.1674617632844306E-02
  0.1656310701956229E-02
  0.1638203902556059E-02
  0.1620295046805069E-02
  0.1602581970781991E-02
  0.1585062534221566E-02
  0.1567734620255921E-02
  0.1550596135158804E-02
  0.1533645008092586E-02
  0.1516879190858051E-02
  0.1500296657646911E-02
  0.1483895404797024E-02
  0.1467673450550302E-02
  0.1451628834813241E-02
  0.1435759618920100E-02
  0.1420063885398639E-02
  0.1404539737738440E-02
  0.1389185300161748E-02
  0.1373998717396821E-02
  0.1358978154453764E-02
  0.1344121796402799E-02
  0.1329427848154977E-02
  0.1314894534245267E-02
  0.1300520098618041E-02
  0.1286302804414875E-02
  0.1272240933764696E-02
  0.1258332787576211E-02
  0.1244576685332598E-02
  0.1230970964888465E-02
  0.1217513982268994E-02
  0.1204204111471318E-02
  0.1191039744268041E-02
  0.1178019290012920E-02
  0.1165141175448665E-02
  0.1152403844516849E-02
  0.1139805758169882E-02
  0.1127345394185055E-02
  0.1115021246980606E-02
  0.1102831827433803E-02
  0.1090775662701015E-02
  0.1078851296039743E-02
  0.1067057286632613E-02
  0.1055392209413268E-02
  0.1043854654894194E-02
  0.1032443228996397E-02
  0.1021156552880968E-02
  0.1009993262782470E-02
  0.9989520098441639E-03
  0.9880314599550147E-03
  0.9772302935885039E-03
  0.9665472056431823E-03
  0.9559809052849795E-03
  0.9455301157912309E-03
  0.9351935743964145E-03
  0.9249700321395639E-03
  0.9148582537133675E-03
  0.9048570173148993E-03
  0.8949651144979924E-03
  0.8851813500272167E-03
  0.8755045417334687E-03
  0.8659335203711243E-03
  0.8564671294767564E-03
  0.8471042252294081E-03
  0.8378436763123787E-03
  0.8286843637765311E-03
  0.8196251809050827E-03
  0.8106650330798904E-03
  0.8018028376491840E-03
  0.7930375237967446E-03
  0.7843680324125283E-03
  0.7757933159646873E-03
  0.7673123383730000E-03
  0.7589240748836769E-03
  0.7506275119455470E-03
  0.7424216470875866E-03
  0.7343054887977916E-03
  0.7262780564033734E-03
  0.7183383799522663E-03
  0.7104855000959227E-03
  0.7027184679734038E-03
  0.6950363450967245E-03
  0.6874382032374528E-03
  0.6799231243145599E-03
  0.6724902002834829E-03
  0.6651385330264102E-03
  0.6578672342437556E-03
  0.6506754253468337E-03
  0.6435622373516959E-03
  0.6365268107741290E-03
  0.6295682955258098E-03
  0.6226858508115852E-03
  0.6158786450278811E-03
  0.6091458556622163E-03
  0.6024866691938239E-03
  0.5959002809953521E-03
  0.5893858952356370E-03
  0.5829427247835494E-03
  0.5765699911128815E-03
  0.5702669242082796E-03
  0.5640327624722022E-03
  0.5578667526328987E-03
  0.5517681496533867E-03
  0.5457362166414364E-03
  0.5397702247605272E-03
  0.5338694531417853E-03
  0.5280331887968776E-03
  0.5222607265318662E-03
  0.5165513688619984E-03
  0.5109044259274269E-03
  0.5053192154098587E-03
  0.4997950624501086E-03
  0.4943312995665570E-03
  0.4889272665744950E-03
  0.4835823105063603E-03
  0.4782957855328357E-03
  0.4730670528848120E-03
  0.4678954807762108E-03
  0.4627804443276420E-03
  0.4577213254909022E-03
  0.4527175129742924E-03
  0.4477684021687609E-03
  0.4428733950748452E-03
  0.4380319002304171E-03
  0.4332433326392160E-03
  0.4285071137001651E-03
  0.4238226711374559E-03
  0.4191894389314053E-03
  0.4146068572500610E-03
  0.4100743723815546E-03
  0.4055914366672026E-03
  0.4011575084353281E-03
  0.3967720519358138E-03
  0.3924345372753638E-03
  0.3881444403534814E-03
  0.3839012427991399E-03
  0.3797044319081459E-03
  0.3755535005811939E-03
  0.3714479472625903E-03
  0.3673872758796525E-03
  0.3633709957827656E-03
  0.3593986216861015E-03
  0.3554696736089795E-03
  0.3515836768178711E-03
  0.3477401617690361E-03
  0.3439386640517915E-03
  0.3401787243323943E-03
  0.3364598882985406E-03
  0.3327817066044728E-03
  0.3291437348166817E-03
  0.3255455333602102E-03
  0.3219866674655369E-03
  0.3184667071160440E-03
  0.3149852269960568E-03
  0.3115418064394558E-03
  0.3081360293788462E-03
  0.3047674842952831E-03
  0.3014357641685513E-03
  0.2981404664279822E-03
  0.2948811929038133E-03
  0.2916575497790748E-03
  0.2884691475420082E-03
  0.2853156009389995E-03
  0.2821965289280303E-03
  0.2791115546326345E-03
  0.2760603052963635E-03
  0.2730424122377446E-03
  0.2700575108057318E-03
  0.2671052403356484E-03
  0.2641852441056057E-03
  0.2612971692934009E-03
  0.2584406669338861E-03
  0.2556153918768028E-03
  0.2528210027450762E-03
  0.2500571618935692E-03
  0.2473235353682837E-03
  0.2446197928660074E-03
  0.2419456076944061E-03
  0.2393006567325482E-03
  0.2366846203918624E-03
  0.2340971825775205E-03
  0.2315380306502464E-03
  0.2290068553885381E-03
  0.2265033509513056E-03
  0.2240272148409142E-03
  0.2215781478666370E-03
  0.2191558541085014E-03
  0.2167600408815334E-03
  0.2143904187003938E-03
  0.2120467012443986E-03
  0.2097286053229241E-03
  0.2074358508411865E-03
  0.2051681607664028E-03
  0.2029252610943115E-03
  0.2007068808160690E-03
  0.1985127518855018E-03
  0.1963426091867191E-03
  0.1941961905020781E-03
  0.1920732364805016E-03
  0.1899734906061402E-03
  0.1878966991673766E-03
  0.1858426112261712E-03
  0.1838109785877408E-03
  0.1818015557705690E-03
  0.1798140999767446E-03
  0.1778483710626251E-03
  0.1759041315098202E-03
  0.1739811463964912E-03
  0.1720791833689674E-03
  0.1701980126136696E-03
  0.1683374068293424E-03
  0.1664971411995885E-03
  0.1646769933657057E-03
  0.1628767433998184E-03
  0.1610961737783035E-03
  0.1593350693555080E-03
  0.1575932173377526E-03
  0.1558704072576202E-03
  0.1541664309485236E-03
  0.1524810825195556E-03
  0.1508141583306090E-03
  0.1491654569677714E-03
  0.1475347792189891E-03
  0.1459219280499956E-03
  0.1443267085805047E-03
  0.1427489280606618E-03
  0.1411883958477556E-03
  0.1396449233831825E-03
  0.1381183241696627E-03
  0.1366084137487049E-03
  0.1351150096783202E-03
  0.1336379315109765E-03
  0.1321770007717954E-03
  0.1307320409369865E-03
  0.1293028774125191E-03
  0.1278893375130257E-03
  0.1264912504409361E-03
  0.1251084472658401E-03
  0.1237407609040761E-03
  0.1223880260985425E-03
  0.1210500793987285E-03
  0.1197267591409661E-03
  0.1184179054288953E-03
  0.1171233601141446E-03
  0.1158429667772207E-03
  0.1145765707086097E-03
  0.1133240188900834E-03
  0.1120851599762092E-03
  0.1108598442760643E-03
  0.1096479237351477E-03
  0.1084492519174916E-03
  0.1072636839879665E-03
  0.1060910766947821E-03
  0.1049312883521775E-03
  0.1037841788233010E-03
  0.1026496095032783E-03
  0.1015274433024644E-03
  0.1004175446298794E-03
  0.9931977937682434E-04
  0.9823401490067792E-04
  0.9716012000886866E-04
  0.9609796494302330E-04
  0.9504742136328748E-04
  0.9400836233281947E-04
  0.9298066230245192E-04
  0.9196419709552126E-04
  0.9095884389286458E-04
  0.8996448121797863E-04
  0.8898098892234228E-04
  0.8800824817089834E-04
  0.8704614142769571E-04
  0.8609455244168706E-04
  0.8515336623268182E-04
  0.8422246907745392E-04
  0.8330174849600065E-04
  0.8239109323795093E-04
  0.8149039326912383E-04
  0.8059953975823228E-04
  0.7971842506373407E-04
  0.7884694272082497E-04
  0.7798498742857428E-04
  0.7713245503720219E-04
  0.7628924253549482E-04
  0.7545524803835768E-04
  0.7463037077450440E-04
  0.7381451107428136E-04
  0.7300757035762428E-04
  0.7220945112214632E-04
  0.7142005693135784E-04
  0.7063929240301335E-04
  0.6986706319758685E-04
  0.6910327600687226E-04
  0.6834783854270980E-04
  0.6760065952583442E-04
  0.6686164867484628E-04
  0.6613071669530273E-04
  0.6540777526892842E-04
  0.6469273704294408E-04
  0.6398551561951126E-04
  0.6328602554529359E-04
  0.6259418230113098E-04
  0.6190990229182754E-04
  0.6123310283605017E-04
  0.6056370215633904E-04
  0.5990161936922604E-04
  0.5924677447546134E-04
  0.5859908835034771E-04
  0.5795848273417958E-04
  0.5732488022278705E-04
  0.5669820425818281E-04
  0.5607837911931229E-04
  0.5546532991290397E-04
  0.5485898256441977E-04
  0.5425926380910523E-04
  0.5366610118313658E-04
  0.5307942301486513E-04
  0.5249915841615682E-04
  0.5192523727382747E-04
  0.5135759024117061E-04
 82 amassPb alat BCC
 -0.0000000000000000E+00
 -0.5332600236748582E-01
 -0.1046456103652174E+00
 -0.1540162091092628E+00
 -0.2014943458480151E+00
 -0.2471357299621928E+00
 -0.2909952329648394E+00
 -0.3331268885013233E+00
 -0.3735838923493384E+00
 -0.4124186024189036E+00
 -0.4496825387523630E+00
 -0.4854263835243857E+00
 -0.5196999810419660E+00
 -0.5525523377444235E+00
 -0.5840316222034027E+00
 -0.6141851651228734E+00
 -0.6430594593391304E+00
 -0.6707001598207940E+00
 -0.6971520836688091E+00
 -0.7224592101164461E+00
 -0.7466646805293007E+00
 -0.7698107984052930E+00
 -0.7919390293746693E+00
 -0.8130900012000000E+00
 -0.8333035037761815E+00
 -0.8526184891304348E+00
 -0.8710730714223063E+00
 -0.8887045269436673E+00
 -0.9055492941187148E+00
 -0.9216429735039697E+00
 -0.9370203277882797E+00
 -0.9517152817928167E+00
 -0.9657609224710775E+00
 -0.9791894989088847E+00
 -0.9920324223243857E+00
 -0.1004320266068053E+01
 -0.1016082765622684E+01
 -0.1027348818603403E+01
 -0.1038146484757656E+01
 -0.1048502985965218E+01
 -0.1058444706238185E+01
 -0.1067997191720983E+01
 -0.1077185150690359E+01
 -0.1086032453555387E+01
 -0.1094562132857467E+01
 -0.1102796383270322E+01
 -0.1110756561600000E+01
 -0.1118463186784877E+01
 -0.1125935939895652E+01
 -0.1133193664135350E+01
 -0.1140254364839320E+01
 -0.1147135209475236E+01
 -0.1153852527643100E+01
 -0.1160421811075236E+01
 -0.1166857713636295E+01
 -0.1173174051323251E+01
 -0.1179383802265406E+01
 -0.1185499106724386E+01
 -0.1191531267094140E+01
 -0.1197490747900945E+01
 -0.1203387175803402E+01
 -0.1209229339592439E+01
 -0.1215025190191305E+01
 -0.1220781840655577E+01
 -0.1226505566173157E+01
 -0.1232201804064272E+01
 -0.1237875153781474E+01
 -0.1243529376909641E+01
 -0.1249167397165974E+01
 -0.1254791300400000E+01
 -0.1260402334593573E+01
 -0.1266000909860869E+01
 -0.1271586598448393E+01
 -0.1277158134734972E+01
 -0.1282713415231758E+01
 -0.1288249498582231E+01
 -0.1293762605562193E+01
 -0.1299243440000000E+01
 -0.1304627480000000E+01
 -0.1309895600000000E+01
 -0.1315047800000000E+01
 -0.1320084080000000E+01
 -0.1325004440000000E+01
 -0.1329808880000000E+01
 -0.1334497400000000E+01
 -0.1339070000000000E+01
 -0.1343526680000000E+01
 -0.1347867440000000E+01
 -0.1352092280000000E+01
 -0.1356201200000000E+01
 -0.1360194200000000E+01
 -0.1364071280000000E+01
 -0.1367832440000000E+01
 -0.1371477680000000E+01
 -0.1375007000000000E+01
 -0.1378420400000000E+01
 -0.1381717880000000E+01
 -0.1384899440000000E+01
 -0.1387965080000000E+01
 -0.1390914800000000E+01
 -0.1393748600000000E+01
 -0.1396466480000000E+01
 -0.1399068440000000E+01
 -0.1401554480000000E+01
 -0.1403924600000000E+01
 -0.1406178800000000E+01
 -0.1408317080000000E+01
 -0.1410339440000000E+01
 -0.1412245880000000E+01
 -0.1414036400000000E+01
 -0.1415711000000000E+01
 -0.1417269680000000E+01
 -0.1418712440000000E+01
 -0.1420039280000000E+01
 -0.1421250200000000E+01
 -0.1422345200000000E+01
 -0.1423324280000000E+01
 -0.1424187440000000E+01
 -0.1424934680000000E+01
 -0.1425666960000000E+01
 -0.1426712400000000E+01
 -0.1428096240000000E+01
 -0.1429818480000000E+01
 -0.1431879120000000E+01
 -0.1434278160000000E+01
 -0.1437015600000000E+01
 -0.1440091440000000E+01
 -0.1443505680000000E+01
 -0.1447258320000000E+01
 -0.1451210160000000E+01
 -0.1454908800000000E+01
 -0.1458319440000000E+01
 -0.1461442080000000E+01
 -0.1464276720000000E+01
 -0.1466823360000000E+01
 -0.1469082000000000E+01
 -0.1471373040000000E+01
 -0.1473487680000000E+01
 -0.1475602320000000E+01
 -0.1477716960000000E+01
 -0.1479831600000000E+01
 -0.1481946240000000E+01
 -0.1484060880000000E+01
 -0.1486175520000000E+01
 -0.1488290160000000E+01
 -0.1490404800000000E+01
 -0.1492519440000000E+01
 -0.1494634080000000E+01
 -0.1496748720000000E+01
 -0.1498863360000000E+01
 -0.1500978000000000E+01
 -0.1503029200800000E+01
 -0.1504953523200000E+01
 -0.1506750967200000E+01
 -0.1508421532800000E+01
 -0.1509965220000000E+01
 -0.1511382028800000E+01
 -0.1512671959200000E+01
 -0.1513835011200000E+01
 -0.1514871184800000E+01
 -0.1515780480000000E+01
 -0.1516562896800000E+01
 -0.1517218435200000E+01
 -0.1517747095200000E+01
 -0.1518148876800000E+01
 -0.1518423780000000E+01
 -0.1518571804800000E+01
 -0.1518592951200000E+01
 -0.1518487219200000E+01
 -0.1518254608800000E+01
 -0.1517895120000000E+01
 -0.1517408752800000E+01
 -0.1516795507200000E+01
 -0.1516055383200000E+01
 -0.1515188380800000E+01
 -0.1514194500000000E+01
 -0.1513073740800000E+01
 -0.1511826103200000E+01
 -0.1510451587200000E+01
 -0.1508950192800000E+01
 -0.1507321920000000E+01
 -0.1505566768800000E+01
 -0.1503684739200000E+01
 -0.1501675831200000E+01
 -0.1499540044800000E+01
 -0.1497277380000000E+01
 -0.1494887836800000E+01
 -0.1492371415200000E+01
 -0.1489728115200000E+01
 -0.1486957936800000E+01
 -0.1484060880000000E+01
 -0.1481036944800000E+01
 -0.1477886131200000E+01
 -0.1474608439200000E+01
 -0.1471203868800000E+01
 -0.1467672420000000E+01
 -0.1464014092800000E+01
 -0.1460228887200000E+01
 -0.1456316803200000E+01
 -0.1452277840800000E+01
 -0.1448112000000000E+01
 -0.1443819280800000E+01
 -0.1439399683200000E+01
 -0.1434853207200000E+01
 -0.1430179852800000E+01
 -0.1425379620000000E+01
 -0.1420452508800000E+01
 -0.1415398519200000E+01
 -0.1410217651200000E+01
 -0.1404909904800000E+01
 -0.1399475280000000E+01
 -0.1393913776800000E+01
 -0.1388225395200000E+01
 -0.1382410135200000E+01
 -0.1376467996800000E+01
 -0.1370398980000000E+01
 -0.1364203084800000E+01
 -0.1357880311200000E+01
 -0.1351430659200000E+01
 -0.1344854128800000E+01
 -0.1338150720000000E+01
 -0.1331320432800000E+01
 -0.1324363267200000E+01
 -0.1317279223200000E+01
 -0.1310068300800000E+01
 -0.1302730500000000E+01
 -0.1295265820800000E+01
 -0.1287674263200000E+01
 -0.1279955827200000E+01
 -0.1272110512800000E+01
 -0.1264138320000000E+01
 -0.1256039248800000E+01
 -0.1247813299200000E+01
 -0.1239460471200000E+01
 -0.1230980764800000E+01
 -0.1222374180000000E+01
 -0.1213640716800000E+01
 -0.1204780375200000E+01
 -0.1195793155200000E+01
 -0.1186679056800000E+01
 -0.1177438080000000E+01
 -0.1168070224800000E+01
 -0.1158575491200000E+01
 -0.1148953879200000E+01
 -0.1139205388800000E+01
 -0.1129330020000000E+01
 -0.1119327772800000E+01
 -0.1109198647200000E+01
 -0.1098942643200000E+01
 -0.1088559760800000E+01
 -0.1078050000000000E+01
 -0.1067413360800000E+01
 -0.1056649843200000E+01
 -0.1045759447200000E+01
 -0.1034742172800000E+01
 -0.1023598020000000E+01
 -0.1012326988800000E+01
 -0.1000929079200000E+01
 -0.9894042911999998E+00
 -0.9777526247999998E+00
 -0.9659740799999998E+00
 -0.9540686567999997E+00
 -0.9420363551999998E+00
 -0.9298771751999998E+00
 -0.9175911167999998E+00
 -0.9051781799999998E+00
 -0.8926383647999998E+00
 -0.8799716711999997E+00
 -0.8671780991999998E+00
 -0.8542576487999998E+00
 -0.8412103199999997E+00
 -0.8280361127999998E+00
 -0.8147350271999997E+00
 -0.8013070631999997E+00
 -0.7877522207999996E+00
 -0.7740704999999997E+00
 -0.7602619007999997E+00
 -0.7463264231999996E+00
 -0.7322640672000001E+00
 -0.7180748328000002E+00
 -0.7037587200000001E+00
 -0.6893157288000001E+00
 -0.6747458592000001E+00
 -0.6600491112000001E+00
 -0.6452254848000001E+00
 -0.6302749799999999E+00
 -0.6151975968000000E+00
 -0.5999933352000000E+00
 -0.5846621952000000E+00
 -0.5692041767999999E+00
 -0.5536192800000000E+00
 -0.5379075047999999E+00
 -0.5220688511999999E+00
 -0.5061033192000000E+00
 -0.4900109088000000E+00
 -0.4737916200000001E+00
 -0.4574454527999998E+00
 -0.4409724071999999E+00
 -0.4243724831999998E+00
 -0.4076456807999997E+00
 -0.3907919999999998E+00
 -0.3738114407999997E+00
 -0.3567040032000000E+00
 -0.3394696871999998E+00
 -0.3221084927999998E+00
 -0.3046204199999998E+00
 -0.2870054687999999E+00
 -0.2692636391999996E+00
 -0.2513949311999997E+00
 -0.2333993447999996E+00
 -0.2152768799999998E+00
 -0.1970275367999996E+00
 -0.1786513151999995E+00
 -0.1601482151999996E+00
 -0.1415182367999994E+00
 -0.1227613799999996E+00
 -0.1038776447999996E+00
 -0.8486703119999950E-01
 -0.6572953919999946E-01
 -0.4646516879999951E-01
 -0.2707392000000031E-01
 -0.7555792800000072E-02
  0.1208921279999986E-01
  0.3186109679999971E-01
  0.5175985919999992E-01
  0.7178550000000006E-01
  0.9193801919999989E-01
  0.1122174167999999E+00
  0.1326236928000000E+00
  0.1531568472000000E+00
  0.1738168800000000E+00
  0.1946037912000000E+00
  0.2155175807999998E+00
  0.2365582488000000E+00
  0.2577257952000001E+00
  0.2790202200000009E+00
  0.3004415232000002E+00
  0.3219897048000007E+00
  0.3436647648000000E+00
  0.3654667032000007E+00
  0.3873955200000003E+00
  0.4094512152000009E+00
  0.4316337888000004E+00
  0.4539432407999993E+00
  0.4763795712000005E+00
  0.4989427799999995E+00
  0.5216328672000003E+00
  0.5444498327999996E+00
  0.5673936768000003E+00
  0.5904643991999998E+00
  0.6136620000000004E+00
  0.6369864791999997E+00
  0.6604378368000006E+00
  0.6840160727999998E+00
  0.7077211872000004E+00
  0.7315531799999995E+00
  0.7555120512000004E+00
  0.7795978007999997E+00
  0.8038104288000010E+00
  0.8281499351999997E+00
  0.8526163200000008E+00
  0.8772095831999998E+00
  0.9019297248000007E+00
  0.9267767447999999E+00
  0.9517506432000007E+00
  0.9768514199999998E+00
  0.1002079075200001E+01
  0.1027433608800000E+01
  0.1052915020800001E+01
  0.1078523311200000E+01
  0.1104258480000001E+01
  0.1130120527200000E+01
  0.1156109452800001E+01
  0.1182225256800000E+01
  0.1208467939200001E+01
  0.1234837500000000E+01
  0.1261333939200001E+01
  0.1287957256800000E+01
  0.1314707452800001E+01
  0.1341584527200000E+01
  0.1368588480000001E+01
  0.1395719311200000E+01
  0.1422977020800001E+01
  0.1450361608800000E+01
  0.1477873075200001E+01
  0.1505511420000000E+01
  0.1533276643200000E+01
  0.1561168744800000E+01
  0.1589187724799999E+01
  0.1617333583200000E+01
  0.1645606320000000E+01
  0.1674005935200001E+01
  0.1702532428799999E+01
  0.1731185800800001E+01
  0.1759966051199999E+01
  0.1788873180000001E+01
  0.1817907187200000E+01
  0.1847068072800001E+01
  0.1876355836800000E+01
  0.1905770479200001E+01
  0.1935311999999999E+01
  0.1964980399200001E+01
  0.1994775676800000E+01
  0.2024697832800001E+01
  0.2054746867200000E+01
  0.2084922780000001E+01
  0.2115225571200000E+01
  0.2145655240800001E+01
  0.2176211788800000E+01
  0.2206895215200001E+01
  0.2237705520000000E+01
  0.2268642703200001E+01
  0.2299706764800000E+01
  0.2330897704800002E+01
  0.2362215523200000E+01
  0.2393660220000002E+01
  0.2425231795200000E+01
  0.2456930248800002E+01
  0.2488755580800000E+01
  0.2520707791200000E+01
  0.2552786880000000E+01
  0.2584992847200001E+01
  0.2617325692800001E+01
  0.2649785416800001E+01
  0.2682372019200001E+01
  0.2715085500000001E+01
  0.2747925859200000E+01
  0.2780893096799999E+01
  0.2813987212800001E+01
  0.2847208207199999E+01
  0.2880556080000001E+01
  0.2914030831199999E+01
  0.2947632460800000E+01
  0.2981360968799999E+01
  0.3015216355200001E+01
  0.3049198619999999E+01
  0.3083307763200001E+01
  0.3117543784799999E+01
  0.3151906684800000E+01
  0.3186396463199999E+01
  0.3221013120000000E+01
  0.3255756655200000E+01
  0.3290627068800000E+01
  0.3325624360799999E+01
  0.3360748531200001E+01
  0.3395999580000000E+01
  0.3431377507200001E+01
  0.3466882312799999E+01
  0.3502513996800001E+01
  0.3538272559199999E+01
  0.3574158000000001E+01
  0.3610170319200000E+01
  0.3646309516800001E+01
  0.3682575592800000E+01
  0.3718968547200001E+01
  0.3755488380000000E+01
  0.3792135091200001E+01
  0.3828908680800000E+01
  0.3865809148800001E+01
  0.3902836495200000E+01
  0.3939990720000001E+01
  0.3977271823200000E+01
  0.4014679804800002E+01
  0.4052214664800000E+01
  0.4089876403200002E+01
  0.4127665019999999E+01
  0.4165580515200001E+01
  0.4203622888800000E+01
  0.4241792140800002E+01
  0.4280088271200000E+01
  0.4318511279999998E+01
  0.4357061167200000E+01
  0.4395737932799999E+01
  0.4434541576800001E+01
  0.4473472099199999E+01
  0.4512529500000000E+01
  0.4551713779199999E+01
  0.4591024936800000E+01
  0.4630462972799999E+01
  0.4670027887200001E+01
  0.4709719679999999E+01
  0.4749538351200000E+01
  0.4789483900800000E+01
  0.4829556328800001E+01
  0.4869755635199999E+01
  0.4910081820000000E+01
  0.4950534883200000E+01
  0.4991114824800001E+01
  0.5031821644799999E+01
  0.5072655343200001E+01
  0.5113615919999999E+01
  0.5154703375200000E+01
  0.5195917708800000E+01
  0.5237258920800001E+01
  0.5278727011199999E+01
  0.5320321980000001E+01
  0.5362043827200000E+01
  0.5403892552800001E+01
  0.5445868156800000E+01
  0.5487970639200001E+01
  0.5530200000000000E+01
  0.5572556239200001E+01
  0.5615039356800000E+01
  0.5657649352800002E+01
  0.5700386227199999E+01
  0.5743249980000001E+01
  0.5786240611200000E+01
  0.5829358120800001E+01
  0.5872602508799999E+01
  0.5915973775200001E+01
  0.5959471919999999E+01
  0.6003096943200003E+01
  0.6046848844800000E+01
  0.6090727624799998E+01
  0.6134733283200001E+01
  0.6178865819999999E+01
  0.6223125235200001E+01
  0.6267511528799999E+01
  0.6312024700799999E+01
  0.6356664751199999E+01
  0.6401431680000001E+01
  0.6446325487199998E+01
  0.6491346172800001E+01
  0.6536493736800000E+01
  0.6581768179200002E+01
  0.6627169500000000E+01
  0.6672697699200001E+01
  0.6718352776799999E+01
  0.6764134732800000E+01
  0.6810043567199998E+01
  0.6856079280000000E+01
  0.6902241871199998E+01
  0.6948531340800002E+01
  0.6994947688799999E+01
  0.7041490915200002E+01
  0.7088161020000000E+01
  0.7134958003200002E+01
  0.7181881864800000E+01
  0.7228932604800002E+01
  0.7276110223200001E+01
  0.7323414720000001E+01
  0.7370846095200000E+01
  0.7418404348800002E+01
  0.7466089480800000E+01
  0.7513901491200003E+01
  0.7561840379999999E+01
  0.7609906147200001E+01
  0.7658098792800000E+01
  0.7706418316800002E+01
  0.7754864719200000E+01
  0.7803438000000001E+01
  0.7852138159200000E+01
  0.7900965196800002E+01
  0.7949919112800001E+01
  0.7998999907200003E+01
  0.8048207580000001E+01
  0.8097542131199999E+01
  0.8147003560800002E+01
  0.8196591868799999E+01
  0.8246307055200001E+01
  0.8296149119999999E+01
  0.8346118063200002E+01
  0.8396213884800000E+01
  0.8446436584800002E+01
  0.8496786163199999E+01
  0.8547262620000001E+01
  0.8597865955200000E+01
  0.8648596168800003E+01
  0.8699453260799999E+01
  0.8750437231200003E+01
  0.8801548080000000E+01
  0.8852785807200002E+01
  0.8904150412800000E+01
  0.8955641896800003E+01
  0.9007260259199999E+01
  0.9059005500000003E+01
  0.9110877619200000E+01
  0.9162876616800002E+01
  0.9215002492800000E+01
  0.9267255247200003E+01
  0.9319634880000001E+01
  0.9372141391200003E+01
  0.9424774780800000E+01
  0.9477535048800002E+01
  0.9530422195200000E+01
  0.9583436220000003E+01
  0.9636577123200000E+01
  0.9689844904800003E+01
  0.9743239564800001E+01
  0.9796761103200003E+01
  0.9850409520000001E+01
  0.9904184815200002E+01
  0.9958086988800002E+01
  0.1001211604080000E+02
  0.1006627197120000E+02
  0.1012055478000000E+02
  0.1017496446720000E+02
  0.1022950103280000E+02
  0.1028416447680000E+02
  0.1033895479920000E+02
  0.1039387200000000E+02
  0.1044891607920000E+02
  0.1050408703680000E+02
  0.1055938487280000E+02
  0.1061480958720000E+02
  0.1067036118000000E+02
  0.1072603965120000E+02
  0.1078184500080000E+02
  0.1083777722880000E+02
  0.1089383633520000E+02
  0.1095002232000000E+02
  0.1100633518320000E+02
  0.1106277492480000E+02
  0.1111934154480000E+02
  0.1117603504320000E+02
  0.1123285542000000E+02
  0.1128980267520000E+02
  0.1134687680880000E+02
  0.1140407782080000E+02
  0.1146140571120000E+02
  0.1151886048000000E+02
  0.1157644212720000E+02
  0.1163415065280000E+02
  0.1169198605680000E+02
  0.1174994833920000E+02
  0.1180803750000000E+02
  0.1186625353920000E+02
  0.1192459645680000E+02
  0.1198306625280000E+02
  0.1204166292720000E+02
  0.1210038648000000E+02
  0.1215923691120000E+02
  0.1221821422080000E+02
  0.1227731840880000E+02
  0.1233654947520000E+02
  0.1239590742000000E+02
  0.1245539224320000E+02
  0.1251500394480000E+02
  0.1257474252480000E+02
  0.1263460798320000E+02
  0.1269460032000000E+02
  0.1275471953520000E+02
  0.1281496562880000E+02
  0.1287533860080000E+02
  0.1293583845120000E+02
  0.1299646518000000E+02
  0.1305721878720000E+02
  0.1311809927280000E+02
  0.1317910663680000E+02
  0.1324024087920000E+02
  0.1330150200000000E+02
  0.1336288999920000E+02
  0.1342440487680000E+02
  0.1348604663280000E+02
  0.1354781526720000E+02
  0.1360971078000000E+02
  0.1367173317120000E+02
  0.1373388244080000E+02
  0.1379615858880000E+02
  0.1385856161520000E+02
  0.1392109152000000E+02
  0.1398374830320000E+02
  0.1404653196480000E+02
  0.1410944250480000E+02
  0.1417247992320000E+02
  0.1423564422000000E+02
  0.1429893539520000E+02
  0.1436235344880000E+02
  0.1442589838080000E+02
  0.1448957019120001E+02
  0.1455336888000001E+02
  0.1461729444720000E+02
  0.1468134689280000E+02
  0.1474552621680000E+02
  0.1480983241920001E+02
  0.1487426550000000E+02
  0.1493882545920000E+02
  0.1500351229680000E+02
  0.1506832601280001E+02
  0.1513326660720000E+02
  0.1519833408000000E+02
  0.1526352843120000E+02
  0.1532884966080001E+02
  0.1539429776880000E+02
  0.1545987275520000E+02
  0.1552557462000000E+02
  0.1559140336320000E+02
  0.1565735898480000E+02
  0.1572344148480000E+02
  0.1578965086320001E+02
  0.1585598712000000E+02
  0.1592245025520000E+02
  0.1598904026880000E+02
  0.1605575716080001E+02
  0.1612260093120000E+02
  0.1618957158000000E+02
  0.1625666910720000E+02
  0.1632389351280001E+02
  0.1639124479680000E+02
  0.1645872295920000E+02
  0.1652632800000000E+02
  0.1659405991920001E+02
  0.1666191871680000E+02
  0.1672990439280000E+02
  0.1679801694720000E+02
  0.1686625638000001E+02
  0.1693462269120000E+02
  0.1700311588080000E+02
  0.1707173594880000E+02
  0.1714048289520001E+02
  0.1720935672000000E+02
  0.1727835742320000E+02
  0.1734748500480000E+02
  0.1741673946480001E+02
  0.1748612080320000E+02
  0.1755562902000000E+02
  0.1762526411520000E+02
  0.1769502608880001E+02
  0.1776491494080000E+02
  0.1783493067120000E+02
  0.1790507328000000E+02
  0.1797534276720001E+02
  0.1804573913280000E+02
  0.1811626237680000E+02
  0.1818691249920000E+02
  0.1825768950000001E+02
  0.1832859337920000E+02
  0.1839962413680000E+02
  0.1847078177280001E+02
  0.1854206628720000E+02
  0.1861347768000000E+02
  0.1868501595120000E+02
  0.1875668110080001E+02
  0.1882847312880000E+02
  0.1890039203520000E+02
  0.1897243782000000E+02
  0.1904461048320001E+02
  0.1911691002480000E+02
  0.1918933644480000E+02
  0.1926188974320000E+02
  0.1933456992000000E+02
  0.1940737697520000E+02
  0.1948031090880000E+02
  0.1955337172080000E+02
  0.1962655941120001E+02
  0.1969987398000000E+02
  0.1977331542720000E+02
  0.1984688375280000E+02
  0.1992057895680001E+02
  0.1999440103920000E+02
  0.2006835000000000E+02
  0.2014242583920000E+02
  0.2021662855680001E+02
  0.2029095815280000E+02
  0.2036541462720000E+02
  0.2043999798000000E+02
  0.2051470821120001E+02
  0.2058954532080000E+02
  0.2066450930880000E+02
  0.2073960017520001E+02
  0.2081481792000001E+02
  0.2089016254320000E+02
  0.2096563404480000E+02
  0.2104123242480000E+02
  0.2111695768320001E+02
  0.2119280982000000E+02
  0.2126878883520000E+02
  0.2134489472880000E+02
  0.2142112750080001E+02
  0.2149748715120000E+02
  0.2157397368000000E+02
  0.2165058708720001E+02
  0.2172732737280000E+02
  0.2180419453680000E+02
  0.2188118857920000E+02
  0.2195830950000001E+02
  0.2203555729919999E+02
  0.2211293197680000E+02
  0.2219043353280000E+02
  0.2226806196720000E+02
  0.2234581728000000E+02
  0.2242369947120000E+02
  0.2250170854080000E+02
  0.2257984448880001E+02
  0.2265810731520000E+02
  0.2273649702000000E+02
  0.2281501360320000E+02
  0.2289365706480001E+02
  0.2297242740480000E+02
  0.2305132462320000E+02
  0.2313034872000000E+02
  0.2320949969520001E+02
  0.2328877754880000E+02
  0.2336818228080000E+02
  0.2344771389120000E+02
  0.2352737238000001E+02
  0.2360715774720000E+02
  0.2368706999280000E+02
  0.2376710911680000E+02
  0.2384727511920001E+02
  0.2392756800000000E+02
  0.2400798775920000E+02
  0.2408853439680000E+02
  0.2416920791280000E+02
  0.2425000830720000E+02
  0.2433093558000000E+02
  0.2441198973120001E+02
  0.2449317076080001E+02
  0.2457447866880000E+02
  0.2465591345520000E+02
  0.2473747512000001E+02
  0.2481916366319999E+02
  0.2490097908480000E+02
  0.2498292138480000E+02
  0.2506499056320001E+02
  0.2514718662000000E+02
  0.2522950955520000E+02
  0.2531195936880000E+02
  0.2539453606080001E+02
  0.2547723963120000E+02
  0.2556007008000000E+02
  0.2564302740720000E+02
  0.2572611161280000E+02
  0.2580932269680000E+02
  0.2589266065920000E+02
  0.2597612550000000E+02
  0.2605971721920001E+02
  0.2614343581680000E+02
  0.2622728129280000E+02
  0.2631125364720000E+02
  0.2639535288000001E+02
  0.2647957899120000E+02
  0.2656393198080000E+02
  0.2664841184880001E+02
  0.2673301859520000E+02
  0.2681775222000000E+02
  0.2690261272320000E+02
  0.2698760010480001E+02
  0.2707271436480001E+02
  0.2715795550320000E+02
  0.2724332352000000E+02
  0.2732881841520000E+02
  0.2741444018880001E+02
  0.2750018884080000E+02
  0.2758606437120000E+02
  0.2767206678000000E+02
  0.2775819606720001E+02
  0.2784445223279999E+02
  0.2793083527680000E+02
  0.2801734519920000E+02
  0.2810398200000001E+02
  0.2819074567920000E+02
  0.2827763623680000E+02
  0.2836465367280000E+02
  0.2845179798720000E+02
  0.2853906918000000E+02
  0.2862646725120000E+02
  0.2871399220080001E+02
  0.2880164402879999E+02
  0.2888942273520000E+02
  0.2897732832000001E+02
  0.2906536078320001E+02
  0.2915352012480000E+02
  0.2924180634480000E+02
  0.2933021944320000E+02
  0.2941875942000001E+02
  0.2950742627520000E+02
  0.2959622000880000E+02
  0.2968514062080001E+02
  0.2977418811120000E+02
  0.2986336248000000E+02
  0.2995266372720000E+02
  0.3004209185280000E+02
  0.3013164685680000E+02
  0.3022132873920000E+02
  0.3031113750000000E+02
  0.3040107313920001E+02
  0.3049113565680000E+02
  0.3058132505280000E+02
  0.3067164132720000E+02
  0.3076208448000000E+02
  0.3085265451120001E+02
  0.3094335142080000E+02
  0.3103417520880000E+02
  0.3112512587520001E+02
  0.3121620342000001E+02
  0.3130740784320000E+02
  0.3139873914480000E+02
  0.3149019732480000E+02
  0.3158178238320001E+02
  0.3167349432000000E+02
  0.3176533313520000E+02
  0.3185729882880000E+02
  0.3194939140080001E+02
  0.3204161085120000E+02
  0.3213395718000000E+02
  0.3222643038720000E+02
  0.3231903047279999E+02
  0.3241175743680000E+02
  0.3250461127920000E+02
  0.3259759200000001E+02
  0.3269069959919999E+02
  0.3278393407680000E+02
  0.3287729543280000E+02
  0.3297078366720001E+02
  0.3306439878000000E+02
  0.3315814077120000E+02
  0.3325200964080000E+02
  0.3334600538880001E+02
  0.3344012801520000E+02
  0.3353437752000000E+02
  0.3362875390320000E+02
  0.3372325716480001E+02
  0.3381788730480000E+02
  0.3391264432320000E+02
  0.3400752822000000E+02
  0.3410253899520001E+02
  0.3419767664880000E+02
  0.3429294118080000E+02
  0.3438833259120000E+02
  0.3448385088000001E+02
  0.3457949604720000E+02
  0.3467526809280000E+02
  0.3477116701680001E+02
  0.3486719281920001E+02
  0.3496334550000000E+02
  0.3505962505920000E+02
  0.3515603149680001E+02
  0.3525256481280001E+02
  0.3534922500720000E+02
  0.3544601208000000E+02
  0.3554292603120001E+02
  0.3563996686080002E+02
  0.3573713456879999E+02
  0.3583442915520001E+02
  0.3593185062000001E+02
  0.3602939896320001E+02
  0.3612707418479999E+02
  0.3622487628480000E+02
  0.3632280526320001E+02
  0.3642086112000000E+02
  0.3651904385520000E+02
  0.3661735346880000E+02
  0.3671578996080001E+02
  0.3681435333120000E+02
  0.3691304357999999E+02
  0.3701186070720001E+02
  0.3711080471280000E+02
  0.3720987559680000E+02
  0.3730907335920000E+02
  0.3740839800000001E+02
  0.3750784951920001E+02
  0.3760742791680000E+02
  0.3770713319280000E+02
  0.3780696534720001E+02
  0.3790692438000001E+02
  0.3800701029120000E+02
  0.3810722308080000E+02
  0.3820756274880000E+02
  0.3830802929520001E+02
  0.3840862272000000E+02
  0.3850934302320000E+02
  0.3861019020480001E+02
  0.3871116426480001E+02
  0.3881226520320000E+02
  0.3891349302000000E+02
  0.3901484771520001E+02
  0.3911632928880001E+02
  0.3921793774080000E+02
  0.3931967307120000E+02
  0.3942153528000000E+02
  0.3952352436720001E+02
  0.3962564033280000E+02
  0.3972788317680000E+02
  0.3983025289920000E+02
  0.3993274950000001E+02
  0.4003537297920000E+02
  0.4013812333680001E+02
  0.4024100057280000E+02
  0.4034400468720001E+02
  0.4044713568000000E+02
  0.4055039355120000E+02
  0.4065377830080001E+02
  0.4075728992880000E+02
  0.4086092843519999E+02
  0.4096469382000000E+02
  0.4106858608320000E+02
  0.4117260522479999E+02
  0.4127675124480000E+02
  0.4138102414320000E+02
  0.4148542392000001E+02
  0.4158995057519999E+02
  0.4169460410880000E+02
  0.4179938452080000E+02
  0.4190429181120001E+02
  0.4200932597999999E+02
  0.4211448702720000E+02
  0.4221977495280001E+02
  0.4232518975680001E+02
  0.4243073143920000E+02
  0.4253640000000000E+02
  0.5153100000000000E+01
  0.5096766277179271E+01
  0.5041048394983961E+01
  0.4985939621040334E+01
  0.4931433296573008E+01
  0.4877522835600378E+01
  0.4824201724138834E+01
  0.4771463519415673E+01
  0.4719301849090630E+01
  0.4667710410485901E+01
  0.4616682969824602E+01
  0.4566213361477534E+01
  0.4516295487218198E+01
  0.4466923315485947E+01
  0.4418090880657196E+01
  0.4369792282324594E+01
  0.4322021684584082E+01
  0.4274773315329742E+01
  0.4228041465556356E+01
  0.4181820488669589E+01
  0.4136104799803711E+01
  0.4090888875146780E+01
  0.4046167251273205E+01
  0.4001934524483596E+01
  0.3958185350151841E+01
  0.3914914442079318E+01
  0.3872116571856158E+01
  0.3829786568229506E+01
  0.3787919316478679E+01
  0.3746509757797149E+01
  0.3705552888681296E+01
  0.3665043760325835E+01
  0.3624977478025853E+01
  0.3585349200585382E+01
  0.3546154139732439E+01
  0.3507387559540465E+01
  0.3469044775856076E+01
  0.3431121155733087E+01
  0.3393612116872710E+01
  0.3356513127069878E+01
  0.3319819703665618E+01
  0.3283527413005415E+01
  0.3247631869903493E+01
  0.3212128737112958E+01
  0.3177013724801725E+01
  0.3142282590034180E+01
  0.3107931136258514E+01
  0.3073955212799644E+01
  0.3040350714357698E+01
  0.3007113580511969E+01
  0.2974239795230291E+01
  0.2941725386383794E+01
  0.2909566425266943E+01
  0.2877759026122839E+01
  0.2846299345673700E+01
  0.2815183582656486E+01
  0.2784407977363588E+01
  0.2753968811188542E+01
  0.2723862406176719E+01
  0.2694085124580910E+01
  0.2664633368421784E+01
  0.2635503579053144E+01
  0.2606692236731937E+01
  0.2578195860192959E+01
  0.2550011006228227E+01
  0.2522134269270926E+01
  0.2494562280983920E+01
  0.2467291709852758E+01
  0.2440319260783125E+01
  0.2413641674702699E+01
  0.2387255728167359E+01
  0.2361158232971694E+01
  0.2335346035763779E+01
  0.2309816017664149E+01
  0.2284565093888951E+01
  0.2259590213377209E+01
  0.2234888358422169E+01
  0.2210456544306659E+01
  0.2186291818942464E+01
  0.2162391262513609E+01
  0.2138751987123571E+01
  0.2115371136446327E+01
  0.2092245885381233E+01
  0.2069373439711660E+01
  0.2046751035767375E+01
  0.2024375940090606E+01
  0.2002245449105759E+01
  0.1980356888792745E+01
  0.1958707614363883E+01
  0.1937295009944324E+01
  0.1916116488255985E+01
  0.1895169490304918E+01
  0.1874451485072119E+01
  0.1853959969207696E+01
  0.1833692466728397E+01
  0.1813646528718435E+01
  0.1793819733033585E+01
  0.1774209684008519E+01
  0.1754814012167338E+01
  0.1735630373937270E+01
  0.1716656451365494E+01
  0.1697889951839065E+01
  0.1679328607807899E+01
  0.1660970176510782E+01
  0.1642812439704383E+01
  0.1624853203395219E+01
  0.1607090297574560E+01
  0.1589521575956224E+01
  0.1572144915717244E+01
  0.1554958217241369E+01
  0.1537959403865364E+01
  0.1521146421628093E+01
  0.1504517239022333E+01
  0.1488069846749315E+01
  0.1471802257475933E+01
  0.1455712505594624E+01
  0.1439798646985858E+01
  0.1424058758783230E+01
  0.1408490939141126E+01
  0.1393093307004920E+01
  0.1377864001883686E+01
  0.1362801183625400E+01
  0.1347903032194589E+01
  0.1333167747452420E+01
  0.1318593548939191E+01
  0.1304178675659196E+01
  0.1289921385867946E+01
  0.1275819956861714E+01
  0.1261872684769381E+01
  0.1248077884346558E+01
  0.1234433888771960E+01
  0.1220939049446002E+01
  0.1207591735791601E+01
  0.1194390335057152E+01
  0.1181333252121664E+01
  0.1168418909302015E+01
  0.1155645746162329E+01
  0.1143012219325422E+01
  0.1130516802286322E+01
  0.1118157985227819E+01
  0.1105934274838032E+01
  0.1093844194129979E+01
  0.1081886282263107E+01
  0.1070059094366780E+01
  0.1058361201365701E+01
  0.1046791189807232E+01
  0.1035347661690607E+01
  0.1024029234298014E+01
  0.1012834540027523E+01
  0.1001762226227835E+01
  0.9908109550348457E+00
  0.9799794032099881E+00
  0.9692662619803488E+00
  0.9586702368805283E+00
  0.9481900475962314E+00
  0.9378244278095670E+00
  0.9275721250460398E+00
  0.9174319005232131E+00
  0.9074025290010286E+00
  0.8974827986337598E+00
  0.8876715108235860E+00
  0.8779674800757657E+00
  0.8683695338553932E+00
  0.8588765124457222E+00
  0.8494872688080378E+00
  0.8402006684430597E+00
  0.8310155892538602E+00
  0.8219309214102843E+00
  0.8129455672148459E+00
  0.8040584409700959E+00
  0.7952684688474365E+00
  0.7865745887573710E+00
  0.7779757502211719E+00
  0.7694709142439529E+00
  0.7610590531891253E+00
  0.7527391506542314E+00
  0.7445102013481310E+00
  0.7363712109695334E+00
  0.7283211960868565E+00
  0.7203591840193982E+00
  0.7124842127198088E+00
  0.7046953306578455E+00
  0.6969915967054012E+00
  0.6893720800227870E+00
  0.6818358599462597E+00
  0.6743820258767780E+00
  0.6670096771699755E+00
  0.6597179230273357E+00
  0.6525058823885573E+00
  0.6453726838250962E+00
  0.6383174654348702E+00
  0.6313393747381172E+00
  0.6244375685743887E+00
  0.6176112130006720E+00
  0.6108594831906249E+00
  0.6041815633349119E+00
  0.5975766465426309E+00
  0.5910439347438159E+00
  0.5845826385930075E+00
  0.5781919773738755E+00
  0.5718711789048863E+00
  0.5656194794459991E+00
  0.5594361236063849E+00
  0.5533203642531519E+00
  0.5472714624210698E+00
  0.5412886872232815E+00
  0.5353713157629891E+00
  0.5295186330461078E+00
  0.5237299318948725E+00
  0.5180045128623901E+00
  0.5123416841481256E+00
  0.5067407615143118E+00
  0.5012010682032735E+00
  0.4957219348556542E+00
  0.4903026994295390E+00
  0.4849427071204593E+00
  0.4796413102822730E+00
  0.4743978683489102E+00
  0.4692117477569729E+00
  0.4640823218691826E+00
  0.4590089708986642E+00
  0.4539910818340558E+00
  0.4490280483654405E+00
  0.4441192708110845E+00
  0.4392641560449795E+00
  0.4344621174251742E+00
  0.4297125747228907E+00
  0.4250149540524162E+00
  0.4203686878017606E+00
  0.4157732145640711E+00
  0.4112279790697985E+00
  0.4067324321196041E+00
  0.4022860305180002E+00
  0.3978882370077146E+00
  0.3935385202047764E+00
  0.3892363545343070E+00
  0.3849812201670161E+00
  0.3807726029563905E+00
  0.3766099943765702E+00
  0.3724928914609025E+00
  0.3684207967411706E+00
  0.3643932181874827E+00
  0.3604096691488213E+00
  0.3564696682942405E+00
  0.3525727395547080E+00
  0.3487184120655811E+00
  0.3449062201097123E+00
  0.3411357030611773E+00
  0.3374064053296171E+00
  0.3337178763051897E+00
  0.3300696703041228E+00
  0.3264613465148613E+00
  0.3228924689448064E+00
  0.3193626063676321E+00
  0.3158713322711814E+00
  0.3124182248059316E+00
  0.3090028667340212E+00
  0.3056248453788359E+00
  0.3022837525751451E+00
  0.2989791846197827E+00
  0.2957107422228686E+00
  0.2924780304595621E+00
  0.2892806587223433E+00
  0.2861182406738167E+00
  0.2829903942000294E+00
  0.2798967413643007E+00
  0.2768369083615564E+00
  0.2738105254731616E+00
  0.2708172270222479E+00
  0.2678566513295290E+00
  0.2649284406695988E+00
  0.2620322412277078E+00
  0.2591677030570113E+00
  0.2563344800362862E+00
  0.2535322298281085E+00
  0.2507606138374897E+00
  0.2480192971709633E+00
  0.2453079485961208E+00
  0.2426262405015883E+00
  0.2399738488574417E+00
  0.2373504531760540E+00
  0.2347557364733715E+00
  0.2321893852306114E+00
  0.2296510893563810E+00
  0.2271405421492084E+00
  0.2246574402604845E+00
  0.2222014836578086E+00
  0.2197723755887368E+00
  0.2173698225449246E+00
  0.2149935342266624E+00
  0.2126432235077992E+00
  0.2103186064010491E+00
  0.2080194020236765E+00
  0.2057453325635582E+00
  0.2034961232456148E+00
  0.2012715022986098E+00
  0.1990712009223118E+00
  0.1968949532550149E+00
  0.1947424963414156E+00
  0.1926135701008392E+00
  0.1905079172958148E+00
  0.1884252835009929E+00
  0.1863654170724039E+00
  0.1843280691170515E+00
  0.1823129934628394E+00
  0.1803199466288263E+00
  0.1783486877958061E+00
  0.1763989787772096E+00
  0.1744705839903250E+00
  0.1725632704278321E+00
  0.1706768076296485E+00
  0.1688109676550827E+00
  0.1669655250552922E+00
  0.1651402568460429E+00
  0.1633349424807659E+00
  0.1615493638239087E+00
  0.1597833051245779E+00
  0.1580365529904707E+00
  0.1563088963620900E+00
  0.1546001264872427E+00
  0.1529100368958156E+00
  0.1512384233748291E+00
  0.1495850839437601E+00
  0.1479498188301385E+00
  0.1463324304454081E+00
  0.1447327233610521E+00
  0.1431505042849793E+00
  0.1415855820381691E+00
  0.1400377675315712E+00
  0.1385068737432579E+00
  0.1369927156958266E+00
  0.1354951104340487E+00
  0.1340138770027635E+00
  0.1325488364250132E+00
  0.1310998116804174E+00
  0.1296666276837835E+00
  0.1282491112639513E+00
  0.1268470911428692E+00
  0.1254603979148980E+00
  0.1240888640263424E+00
  0.1227323237552049E+00
  0.1213906131911619E+00
  0.1200635702157589E+00
  0.1187510344828211E+00
  0.1174528473990793E+00
  0.1161688521050067E+00
  0.1148988934558663E+00
  0.1136428180029639E+00
  0.1124004739751078E+00
  0.1111717112602696E+00
  0.1099563813874471E+00
  0.1087543375087234E+00
  0.1075654343815246E+00
  0.1063895283510691E+00
  0.1052264773330106E+00
  0.1040761407962697E+00
  0.1029383797460537E+00
  0.1018130567070618E+00
  0.1007000357068742E+00
  0.9959918225952237E-01
  0.9851036334923945E-01
  0.9743344741438754E-01
  0.9636830433156163E-01
  0.9531480539986657E-01
  0.9427282332536621E-01
  0.9324223220570262E-01
  0.9222290751488305E-01
  0.9121472608823397E-01
  0.9021756610751887E-01
  0.8923130708621868E-01
  0.8825582985497415E-01
  0.8729101654718588E-01
  0.8633675058477323E-01
  0.8539291666408759E-01
  0.8445940074198088E-01
  0.8353609002202524E-01
  0.8262287294088409E-01
  0.8171963915483221E-01
  0.8082627952642245E-01
  0.7994268611129902E-01
  0.7906875214515471E-01
  0.7820437203083008E-01
  0.7734944132555487E-01
  0.7650385672832753E-01
  0.7566751606743405E-01
  0.7484031828810205E-01
  0.7402216344029058E-01
  0.7321295266661342E-01
  0.7241258819039360E-01
  0.7162097330384977E-01
  0.7083801235641035E-01
  0.7006361074315667E-01
  0.6929767489339161E-01
  0.6854011225933339E-01
  0.6779083130493337E-01
  0.6704974149481543E-01
  0.6631675328333679E-01
  0.6559177810376837E-01
  0.6487472835759295E-01
  0.6416551740392105E-01
  0.6346405954902182E-01
  0.6277027003596897E-01
  0.6208406503439928E-01
  0.6140536163038381E-01
  0.6073407781640922E-01
  0.6007013248146869E-01
  0.5941344540126151E-01
  0.5876393722849966E-01
  0.5812152948332003E-01
  0.5748614454380207E-01
  0.5685770563658835E-01
  0.5623613682760850E-01
  0.5562136301290373E-01
  0.5501330990955235E-01
  0.5441190404669394E-01
  0.5381707275665214E-01
  0.5322874416615392E-01
  0.5264684718764555E-01
  0.5207131151070269E-01
  0.5150206759353524E-01
  0.5093904665458417E-01
  0.5038218066421111E-01
  0.4983140233647797E-01
  0.4928664512101712E-01
  0.4874784319498990E-01
  0.4821493145513330E-01
  0.4768784550989373E-01
  0.4716652167164647E-01
  0.4665089694900019E-01
  0.4614090903918604E-01
  0.4563649632052930E-01
  0.4513759784500392E-01
  0.4464415333086795E-01
  0.4415610315537997E-01
  0.4367338834759464E-01
  0.4319595058123739E-01
  0.4272373216765697E-01
  0.4225667604885471E-01
  0.4179472579059044E-01
  0.4133782557556349E-01
  0.4088592019666816E-01
  0.4043895505032335E-01
  0.3999687612987451E-01
  0.3955963001906834E-01
  0.3912716388559825E-01
  0.3869942547472080E-01
  0.3827636310294181E-01
  0.3785792565177130E-01
  0.3744406256154705E-01
  0.3703472382532530E-01
  0.3662985998283864E-01
  0.3622942211451952E-01
  0.3583336183558943E-01
  0.3544163129021269E-01
  0.3505418314571374E-01
  0.3467097058685836E-01
  0.3429194731019659E-01
  0.3391706751846819E-01
  0.3354628591506881E-01
  0.3317955769857692E-01
  0.3281683855734037E-01
  0.3245808466412235E-01
  0.3210325267080561E-01
  0.3175229970315489E-01
  0.3140518335563628E-01
  0.3106186168629343E-01
  0.3072229321167982E-01
  0.3038643690184612E-01
  0.3005425217538281E-01
  0.2972569889451647E-01
  0.2940073736026018E-01
  0.2907932830761653E-01
  0.2876143290083339E-01
  0.2844701272871128E-01
  0.2813602979996217E-01
  0.2782844653861914E-01
  0.2752422577949587E-01
  0.2722333076369621E-01
  0.2692572513417238E-01
  0.2663137293133224E-01
  0.2634023858869398E-01
  0.2605228692858894E-01
  0.2576748315791084E-01
  0.2548579286391199E-01
  0.2520718201004499E-01
  0.2493161693185019E-01
  0.2465906433288814E-01
  0.2438949128071614E-01
  0.2412286520290931E-01
  0.2385915388312461E-01
  0.2359832545720836E-01
  0.2334034840934595E-01
  0.2308519156825393E-01
  0.2283282410341347E-01
  0.2258321552134516E-01
  0.2233633566192458E-01
  0.2209215469473790E-01
  0.2185064311547765E-01
  0.2161177174237757E-01
  0.2137551171268673E-01
  0.2114183447918191E-01
  0.2091071180671832E-01
  0.2068211576881805E-01
  0.2045601874429558E-01
  0.2023239341392032E-01
  0.2001121275711572E-01
  0.1979245004869440E-01
  0.1957607885562880E-01
  0.1936207303385750E-01
  0.1915040672512604E-01
  0.1894105435386264E-01
  0.1873399062408777E-01
  0.1852919051635777E-01
  0.1832662928474167E-01
  0.1812628245383116E-01
  0.1792812581578332E-01
  0.1773213542739546E-01
  0.1753828760721217E-01
  0.1734655893266385E-01
  0.1715692623723662E-01
  0.1696936660767302E-01
  0.1678385738120352E-01
  0.1660037614280812E-01
  0.1641890072250794E-01
  0.1623940919268651E-01
  0.1606187986544014E-01
  0.1588629128995752E-01
  0.1571262224992766E-01
  0.1554085176097650E-01
  0.1537095906813124E-01
  0.1520292364331262E-01
  0.1503672518285443E-01
  0.1487234360505031E-01
  0.1470975904772724E-01
  0.1454895186584558E-01
  0.1438990262912542E-01
  0.1423259211969878E-01
  0.1407700132978754E-01
  0.1392311145940674E-01
  0.1377090391409299E-01
  0.1362036030265765E-01
  0.1347146243496474E-01
  0.1332419231973291E-01
  0.1317853216236163E-01
  0.1303446436278108E-01
  0.1289197151332549E-01
  0.1275103639662984E-01
  0.1261164198354939E-01
  0.1247377143110222E-01
  0.1233740808043391E-01
  0.1220253545480480E-01
  0.1206913725759902E-01
  0.1193719737035544E-01
  0.1180669985082003E-01
  0.1167762893101959E-01
  0.1154996901535652E-01
  0.1142370467872437E-01
  0.1129882066464409E-01
  0.1117530188342052E-01
  0.1105313341031917E-01
  0.1093230048376283E-01
  0.1081278850354797E-01
  0.1069458302908056E-01
  0.1057766977763123E-01
  0.1046203462260955E-01
  0.1034766359185699E-01
  0.1023454286595884E-01
  0.1012265877657423E-01
  0.1001199780478476E-01
  0.9902546579460882E-02
  0.9794291875646337E-02
  0.9687220612960179E-02
  0.9581319854016295E-02
  0.9476576802860121E-02
  0.9372978803422562E-02
  0.9270513337990772E-02
  0.9169168025695597E-02
  0.9068930621015657E-02
  0.8969789012297655E-02
  0.8871731220293002E-02
  0.8774745396710302E-02
  0.8678819822783786E-02
  0.8583942907857290E-02
  0.8490103187983775E-02
  0.8397289324540170E-02
  0.8305490102857273E-02
  0.8214694430864753E-02
  0.8124891337750835E-02
  0.8036069972636752E-02
  0.7948219603265593E-02
  0.7861329614705575E-02
  0.7775389508067398E-02
  0.7690388899235687E-02
  0.7606317517614307E-02
  0.7523165204885310E-02
  0.7440921913781597E-02
  0.7359577706872809E-02
  0.7279122755364674E-02
  0.7199547337911337E-02
  0.7120841839440785E-02
  0.7042996749993012E-02
  0.6966002663570978E-02
  0.6889850277004047E-02
  0.6814530388823907E-02
  0.6740033898152771E-02
  0.6666351803603691E-02
  0.6593475202192956E-02
  0.6521395288264310E-02
  0.6450103352425014E-02
  0.6379590780493443E-02
  0.6309849052458284E-02
  0.6240869741449026E-02
  0.6172644512717762E-02
  0.6105165122632120E-02
  0.6038423417679149E-02
  0.5972411333480177E-02
  0.5907120893816350E-02
  0.5842544209664909E-02
  0.5778673478245931E-02
  0.5715500982079547E-02
  0.5653019088053410E-02
  0.5591220246500427E-02
  0.5530096990286499E-02
  0.5469641933908289E-02
  0.5409847772600841E-02
  0.5350707281454920E-02
  0.5292213314544065E-02
  0.5234358804061112E-02
  0.5177136759464226E-02
  0.5120540266632207E-02
  0.5064562487029091E-02
  0.5009196656877813E-02
  0.4954436086342972E-02
  0.4900274158722501E-02
  0.4846704329648144E-02
  0.4793720126294742E-02
  0.4741315146598085E-02
  0.4689483058481385E-02
  0.4638217599090147E-02
  0.4587512574035446E-02
  0.4537361856645457E-02
  0.4487759387225185E-02
  0.4438699172324241E-02
  0.4390175284012677E-02
  0.4342181859164726E-02
  0.4294713098750336E-02
  0.4247763267134504E-02
  0.4201326691384210E-02
  0.4155397760582991E-02
  0.4109970925152946E-02
  0.4065040696184206E-02
  0.4020601644771695E-02
  0.3976648401359158E-02
  0.3933175655090377E-02
  0.3890178153167436E-02
  0.3847650700216052E-02
  0.3805588157657793E-02
  0.3763985443089216E-02
  0.3722837529667731E-02
  0.3682139445504237E-02
  0.3641886273062347E-02
  0.3602073148564216E-02
  0.3562695261402858E-02
  0.3523747853560860E-02
  0.3485226219035497E-02
  0.3447125703270096E-02
  0.3409441702591626E-02
  0.3372169663654436E-02
  0.3335305082890086E-02
  0.3298843505963167E-02
  0.3262780527233105E-02
  0.3227111789221809E-02
  0.3191832982087164E-02
  0.3156939843102291E-02
  0.3122428156140453E-02
  0.3088293751165651E-02
  0.3054532503728738E-02
  0.3021140334469077E-02
  0.2988113208621624E-02
  0.2955447135529419E-02
  0.2923138168161383E-02
  0.2891182402635408E-02
  0.2859575977746656E-02
  0.2828315074500998E-02
  0.2797395915653582E-02
  0.2766814765252411E-02
  0.2736567928186951E-02
  0.2706651749741627E-02
  0.2677062615154256E-02
  0.2647796949179243E-02
  0.2618851215655611E-02
  0.2590221917079711E-02
  0.2561905594182630E-02
  0.2533898825512207E-02
  0.2506198227019614E-02
  0.2478800451650474E-02
  0.2451702188940419E-02
  0.2424900164615113E-02
  0.2398391140194594E-02
  0.2372171912601998E-02
  0.2346239313776507E-02
  0.2320590210290570E-02
  0.2295221502971286E-02
  0.2270130126525929E-02
  0.2245313049171581E-02
  0.2220767272268784E-02
  0.2196489829959236E-02
  0.2172477788807412E-02
  0.2148728247446120E-02
  0.2125238336225943E-02
  0.2102005216868478E-02
  0.2079026082123413E-02
  0.2056298155429305E-02
  0.2033818690578104E-02
  0.2011584971383318E-02
  0.1989594311351833E-02
  0.1967844053359285E-02
  0.1946331569329020E-02
  0.1925054259914528E-02
  0.1904009554185378E-02
  0.1883194909316562E-02
  0.1862607810281253E-02
  0.1842245769546918E-02
  0.1822106326774738E-02
  0.1802187048522342E-02
  0.1782485527949761E-02
  0.1762999384528620E-02
  0.1743726263754493E-02
  0.1724663836862415E-02
  0.1705809800545490E-02
  0.1687161876676596E-02
  0.1668717812033099E-02
  0.1650475378024620E-02
  0.1632432370423743E-02
  0.1614586609099678E-02
  0.1596935937754840E-02
  0.1579478223664306E-02
  0.1562211357418107E-02
  0.1545133252666368E-02
  0.1528241845867198E-02
  0.1511535096037365E-02
  0.1495010984505670E-02
  0.1478667514669050E-02
  0.1462502711751316E-02
  0.1446514622564542E-02
  0.1430701315273070E-02
  0.1415060879160080E-02
  0.1399591424396723E-02
  0.1384291081813766E-02
  0.1369158002675751E-02
  0.1354190358457609E-02
  0.1339386340623711E-02
  0.1324744160409361E-02
  0.1310262048604644E-02
  0.1295938255340666E-02
  0.1281771049878101E-02
  0.1267758720398085E-02
  0.1253899573795367E-02
  0.1240191935473731E-02
  0.1226634149143661E-02
  0.1213224576622210E-02
  0.1199961597635050E-02
  0.1186843609620710E-02
  0.1173869027536931E-02
  0.1161036283669142E-02
  0.1148343827441040E-02
  0.1135790125227235E-02
  0.1123373660167938E-02
  0.1111092931985676E-02
  0.1098946456804028E-02
  0.1086932766968314E-02
  0.1075050410868266E-02
  0.1063297952762627E-02
  0.1051673972605677E-02
  0.1040177065875643E-02
  0.1028805843404991E-02
  0.1017558931212577E-02
  0.1006434970337632E-02
  0.9954326166755471E-03
  0.9845505408154790E-03
  0.9737874278797123E-03
  0.9631419773647818E-03
  0.9526129029843355E-03
  0.9421989325137133E-03
  0.9318988076362189E-03
  0.9217112837910872E-03
  0.9116351300230975E-03
  0.9016691288338417E-03
  0.8918120760346071E-03
  0.8820627806008849E-03
  0.8724200645284535E-03
  0.8628827626910372E-03
  0.8534497226995324E-03
  0.8441198047627593E-03
  0.8348918815497443E-03
  0.8257648380534989E-03
  0.8167375714563028E-03
  0.8078089909964458E-03
  0.7989780178364279E-03
  0.7902435849326119E-03
  0.7816046369062870E-03
  0.7730601299161511E-03
  0.7646090315321772E-03
  0.7562503206108754E-03
  0.7479829871719003E-03
  0.7398060322760193E-03
  0.7317184679044096E-03
  0.7237193168392780E-03
  0.7158076125457783E-03
  0.7079823990552341E-03
  0.7002427308496244E-03
  0.6925876727473336E-03
  0.6850162997901615E-03
  0.6775276971315556E-03
  0.6701209599260734E-03
  0.6627951932200444E-03
  0.6555495118434418E-03
  0.6483830403029229E-03
  0.6412949126760405E-03
  0.6342842725066207E-03
  0.6273502727012730E-03
  0.6204920754270385E-03
  0.6137088520101503E-03
  0.6069997828359116E-03
  0.6003640572496583E-03
  0.5938008734588088E-03
  0.5873094384359805E-03
  0.5808889678231742E-03
  0.5745386858369968E-03
  0.5682578251749238E-03
  0.5620456269225881E-03
  0.5559013404620767E-03
  0.5498242233812394E-03
  0.5438135413839790E-03
  0.5378685682015295E-03
  0.5319885855046969E-03
  0.5261728828170691E-03
  0.5204207574291673E-03
  0.5147315143135340E-03
  0.5091044660407596E-03
  0.5035389326964162E-03
  0.4980342417989055E-03
  0.4925897282182001E-03
  0.4872047340954812E-03
  0.4818786087636454E-03
  0.4766107086686877E-03
  0.4714003972919371E-03
  0.4662470450731510E-03
  0.4611500293344439E-03
  0.4561087342050463E-03
  0.4511225505468946E-03
  0.4461908758810255E-03
  0.4413131143147797E-03
  0.4364886764698005E-03
  0.4317169794108198E-03
  0.4269974465752194E-03
  0.4223295077033698E-03
  0.4177125987697234E-03
  0.4131461619146612E-03
  0.4086296453770916E-03
  0.4041625034277783E-03
  0.3997441963034008E-03
  0.3953741901413329E-03
  0.3910519569151404E-03
  0.3867769743707764E-03
  0.3825487259634797E-03
  0.3783667007953575E-03
  0.3742303935536583E-03
  0.3701393044497128E-03
  0.3660929391585428E-03
  0.3620908087591358E-03
  0.3581324296753665E-03
  0.3542173236175676E-03
  0.3503450175247348E-03
  0.3465150435073744E-03
  0.3427269387909595E-03
  0.3389802456600194E-03
  0.3352745114028315E-03
  0.3316092882567214E-03
  0.3279841333539572E-03
  0.3243986086682419E-03
  0.3208522809617847E-03
  0.3173447217329515E-03
  0.3138755071644924E-03
  0.3104442180723303E-03
  0.3070504398549111E-03
  0.3036937624431065E-03
  0.3003737802506680E-03
  0.2970900921252186E-03
  0.2938423012997800E-03
  0.2906300153448349E-03
  0.2874528461209074E-03
  0.2843104097316655E-03
  0.2812023264775326E-03
  0.2781282208098122E-03
  0.2750877212853084E-03
  0.2720804605214433E-03
  0.2691060751518693E-03
  0.2661642057825615E-03
  0.2632544969483932E-03
  0.2603765970701836E-03
  0.2575301584122191E-03
  0.2547148370402351E-03
  0.2519302927798575E-03
  0.2491761891755016E-03
  0.2464521934497173E-03
  0.2437579764629802E-03
  0.2410932126739196E-03
  0.2384575800999866E-03
  0.2358507602785481E-03
  0.2332724382284058E-03
  0.2307223024117371E-03
  0.2282000446964544E-03
  0.2257053603189712E-03
  0.2232379478473793E-03
  0.2207975091450248E-03
  0.2183837493344867E-03
  0.2159963767619457E-03
  0.2136351029619442E-03
  0.2112996426225298E-03
  0.2089897135507833E-03
  0.2067050366387202E-03
  0.2044453358295656E-03
  0.2022103380843998E-03
  0.1999997733491661E-03
  0.1978133745220408E-03
  0.1956508774211582E-03
  0.1935120207526914E-03
  0.1913965460792793E-03
  0.1893041977887987E-03
  0.1872347230634810E-03
  0.1851878718493624E-03
  0.1831633968260712E-03
  0.1811610533769429E-03
  0.1791805995594644E-03
  0.1772217960760401E-03
  0.1752844062450763E-03
  0.1733681959723848E-03
  0.1714729337228964E-03
  0.1695983904926851E-03
  0.1677443397812964E-03
  0.1659105575643812E-03
  0.1640968222666255E-03
  0.1623029147349786E-03
  0.1605286182121716E-03
  0.1587737183105280E-03
  0.1570380029860591E-03
  0.1553212625128415E-03
  0.1536232894576777E-03
  0.1519438786550312E-03
  0.1502828271822366E-03
  0.1486399343349796E-03
  0.1470150016030477E-03
  0.1454078326463432E-03
  0.1438182332711588E-03
  0.1422460114067149E-03
  0.1406909770819511E-03
  0.1391529424025712E-03
  0.1376317215283413E-03
  0.1361271306506332E-03
  0.1346389879702167E-03
  0.1331671136752919E-03
  0.1317113299197621E-03
  0.1302714608017458E-03
  0.1288473323423219E-03
  0.1274387724645082E-03
  0.1260456109724685E-03
  0.1246676795309493E-03
  0.1233048116449391E-03
  0.1219568426395504E-03
  0.1206236096401233E-03
  0.1193049515525444E-03
  0.1180007090437825E-03
  0.1167107245226356E-03
  0.1154348421206902E-03
  0.1141729076734874E-03
  0.1129247687018945E-03
  0.1116902743936825E-03
  0.1104692755853020E-03
  0.1092616247438613E-03
  0.1080671759492981E-03
  0.1068857848767502E-03
  0.1057173087791151E-03
  0.1045616064698032E-03
  0.1034185383056767E-03
  0.1022879661701782E-03
